{"learner":{"attributes":{"best_iteration":"8","best_score":"0.5033931015486448"},"feature_names":["f_0","f_1","f_2","f_3","f_4","months_since_signup","calendar_month","signup_month","is_first_month"],"feature_types":["q","q","q","q","q","q","c","c","c"],"gradient_booster":{"model":{"cats":{"enc":[],"feature_segments":[],"sorted_idx":[]},"gbtree_model_param":{"num_parallel_tree":"1","num_trees":"59"},"iteration_indptr":[0,1,2,3,4,5,6,7,8,9,10,11,12,13,14,15,16,17,18,19,20,21,22,23,24,25,26,27,28,29,30,31,32,33,34,35,36,37,38,39,40,41,42,43,44,45,46,47,48,49,50,51,52,53,54,55,56,57,58,59],"tree_info":[0,0,0,0,0,0,0,0,0,0,0,0,0,0,0,0,0,0,0,0,0,0,0,0,0,0,0,0,0,0,0,0,0,0,0,0,0,0,0,0,0,0,0,0,0,0,0,0,0,0,0,0,0,0,0,0,0,0,0],"trees":[{"base_weights":[2.9438708E-3,7.857071E-1,-1.0823591E0,9.181519E-1,-5.168427E-2,-6.086414E-1,-1.2927704E0,1.0513663E0,6.1429304E-1,1.9574769E-1,-2.6451173E-1,-3.0075374E-1,-7.94652E-1,-1.4444607E0,-9.948461E-1,1.2457588E0,9.559612E-1,7.9192954E-1,4.2468426E-1,1.4543808E-1,6.6626924E-1,-3.7858596E-1,1.1833701E-1,-0E0,-4.2115393E-1,-9.086158E-1,-3.889443E-1,-1.1989728E0,-1.5075164E0,-1.0451715E0,-5.963246E-1,1.1759949E0,1.3657413E0,8.467169E-1,1.091737E0,8.918388E-1,7.0728904E-1,2.9133534E-1,5.422199E-1,3.2634845E-1,6.97556E-3,7.3558056E-1,-1.5169665E-2,-3.9828005E-1,4.7687835E-1,7.9666756E-2,1.1357641E0,-6.8983305E-1,4.848121E-2,-2.640422E-1,-5.7027864E-1,-9.9054223E-1,-5.9756005E-1,-4.682262E-1,6.685746E-2,-1.2335736E0,-5.965163E-1,-1.3312869E0,-1.6101668E0,-1.1234875E0,-8.101117E-1,-3.2145056E-1,-7.18268E-1,3.0564308E-2,2.7885435E-2,3.767379E-2,3.2730315E-2,2.4377171E-2,2.0419816E-2,2.9296728E-2,2.5442315E-2,1.9614393E-2,2.4812503E-2,1.6730096E-2,2.58758E-2,5.9694266E-3,1.6182981E-2,1.2903432E-2,3.29416E-2,2.3667524E-2,7.1521825E-3,9.263536E-3,-1.208727E-3,1.4151873E-2,2.4287192E-2,-1.2873192E-2,-8.230475E-3,2.0767475E-2,-1.5169665E-2,-2.54277E-4,8.22132E-3,3.8215335E-2,1.7017769E-2,-2.500492E-2,1.0618524E-3,1.42591335E-2,-2.9511863E-4,-8.519591E-4,-1.14094615E-2,-2.024874E-2,-9.039302E-3,-2.8017612E-2,-2.0812303E-2,-3.8599386E-3,-1.6907878E-2,-1.4694566E-2,-7.910763E-3,-1.6218218E-3,2.0842392E-2,-1.9543719E-2,-3.1459272E-2,-4.4227308E-3,-2.0209841E-2,-3.369781E-2,-2.433132E-2,-4.094858E-2,-3.495373E-2,-1.9397382E-2,-2.9448649E-2,-2.366357E-2,-1.2784152E-2,-1.4985638E-3,-1.7186835E-2,-1.9994285E-2,-9.6178055E-3],"categories":[1,2,5,6,8,9,2,3,4,5,1,2,5,6,7],"categories_nodes":[30,49,56],"categories_segments":[0,6,10],"categories_sizes":[6,4,5],"default_left":[0,0,0,0,0,0,0,0,0,0,0,0,0,0,0,0,0,0,0,0,0,0,0,0,0,0,0,0,0,0,1,0,0,0,0,0,0,0,0,0,0,0,0,0,0,0,0,0,0,1,0,0,0,0,0,0,1,0,0,0,0,0,0,0,0,0,0,0,0,0,0,0,0,0,0,0,0,0,0,0,0,0,0,0,0,0,0,0,0,0,0,0,0,0,0,0,0,0,0,0,0,0,0,0,0,0,0,0,0,0,0,0,0,0,0,0,0,0,0,0,0,0,0,0,0],"id":0,"left_children":[1,3,5,7,9,11,13,15,17,19,21,23,25,27,29,31,33,35,37,39,41,43,45,47,49,51,53,55,57,59,61,63,65,67,69,71,73,75,77,79,81,83,-1,85,87,89,91,93,95,97,99,101,103,105,107,109,111,113,115,117,119,121,123,-1,-1,-1,-1,-1,-1,-1,-1,-1,-1,-1,-1,-1,-1,-1,-1,-1,-1,-1,-1,-1,-1,-1,-1,-1,-1,-1,-1,-1,-1,-1,-1,-1,-1,-1,-1,-1,-1,-1,-1,-1,-1,-1,-1,-1,-1,-1,-1,-1,-1,-1,-1,-1,-1,-1,-1,-1,-1,-1,-1,-1,-1],"loss_changes":[3.4545035E4,2.6204268E3,1.6977793E3,8.252051E2,1.699043E2,2.9982507E2,5.324238E2,2.6232324E2,2.0906763E2,3.50576E1,7.5846954E1,7.149167E1,1.5064185E2,1.2015918E2,7.93479E1,3.8282715E1,1.4051953E2,2.6657227E1,4.6905396E1,3.366086E1,1.2736935E1,2.2511429E1,1.5289871E1,1.8888762E1,3.278688E1,6.449341E1,2.6026459E1,3.27688E1,1.1157422E2,6.446973E1,1.4675842E1,7.8325195E0,1.1892334E1,1.7664062E1,2.4473145E1,1.5502808E1,1.9637085E1,2.5773361E1,2.8886108E1,1.380101E1,1.5611259E1,5.0034103E0,0E0,1.0257324E1,1.1656029E1,8.737582E0,1.906807E0,8.846508E0,1.686352E1,3.0598042E1,3.6068314E1,4.1533325E1,1.9077194E1,1.0973541E1,1.0987458E1,2.0317383E1,7.5994167E0,1.8050049E1,2.7874023E1,5.4246826E1,3.6506287E1,1.3111229E1,8.394974E0,0E0,0E0,0E0,0E0,0E0,0E0,0E0,0E0,0E0,0E0,0E0,0E0,0E0,0E0,0E0,0E0,0E0,0E0,0E0,0E0,0E0,0E0,0E0,0E0,0E0,0E0,0E0,0E0,0E0,0E0,0E0,0E0,0E0,0E0,0E0,0E0,0E0,0E0,0E0,0E0,0E0,0E0,0E0,0E0,0E0,0E0,0E0,0E0,0E0,0E0,0E0,0E0,0E0,0E0,0E0,0E0,0E0,0E0,0E0,0E0,0E0,0E0],"parents":[2147483647,0,0,1,1,2,2,3,3,4,4,5,5,6,6,7,7,8,8,9,9,10,10,11,11,12,12,13,13,14,14,15,15,16,16,17,17,18,18,19,19,20,20,21,21,22,22,23,23,24,24,25,25,26,26,27,27,28,28,29,29,30,30,31,31,32,32,33,33,34,34,35,35,36,36,37,37,38,38,39,39,40,40,41,41,43,43,44,44,45,45,46,46,47,47,48,48,49,49,50,50,51,51,52,52,53,53,54,54,55,55,56,56,57,57,58,58,59,59,60,60,61,61,62,62],"right_children":[2,4,6,8,10,12,14,16,18,20,22,24,26,28,30,32,34,36,38,40,42,44,46,48,50,52,54,56,58,60,62,64,66,68,70,72,74,76,78,80,82,84,-1,86,88,90,92,94,96,98,100,102,104,106,108,110,112,114,116,118,120,122,124,-1,-1,-1,-1,-1,-1,-1,-1,-1,-1,-1,-1,-1,-1,-1,-1,-1,-1,-1,-1,-1,-1,-1,-1,-1,-1,-1,-1,-1,-1,-1,-1,-1,-1,-1,-1,-1,-1,-1,-1,-1,-1,-1,-1,-1,-1,-1,-1,-1,-1,-1,-1,-1,-1,-1,-1,-1,-1,-1,-1,-1,-1],"split_conditions":[3E0,2E0,3.9941627E-1,1E0,4.1501674E-1,2.1641587E-1,3.9253038E-1,2.6447767E-1,4.2766386E-1,6.8735147E-1,5.1651484E-1,3.7117344E-1,5.5490375E-1,2.3382436E-1,6.278218E-1,5.573904E-1,4.3127418E-1,2.2035918E-1,3.3280376E-1,2.1155185E-1,5.841994E-1,7.431745E-1,5.9290564E-1,6.012172E-2,1.3042304E-1,6.2234646E-1,5.3378046E-1,7.249091E-1,5.3680503E-1,4.6014166E-1,1E-45,1.3966978E-1,5.7973877E-2,3.6078438E-1,4.418065E-1,4.6291268E-1,6.8735147E-1,6.348595E-1,7.358314E-1,8.5895315E-2,1.6949064E-1,3.6402658E-1,-1.5169665E-2,1.96151E-1,2.1219712E-1,6.4123034E-1,5.573904E-1,1.4503711E-1,7.1116775E-2,1E-45,3.1942233E-1,3.3280376E-1,1.6212085E-1,6.452894E-1,3.8946462E-1,4.6978608E-1,1E-45,3.6833683E-1,5.37815E-1,4.6356437E-1,5.11936E-1,7E0,3.5111272E-1,3.0564308E-2,2.7885435E-2,3.767379E-2,3.2730315E-2,2.4377171E-2,2.0419816E-2,2.9296728E-2,2.5442315E-2,1.9614393E-2,2.4812503E-2,1.6730096E-2,2.58758E-2,5.9694266E-3,1.6182981E-2,1.2903432E-2,3.29416E-2,2.3667524E-2,7.1521825E-3,9.263536E-3,-1.208727E-3,1.4151873E-2,2.4287192E-2,-1.2873192E-2,-8.230475E-3,2.0767475E-2,-1.5169665E-2,-2.54277E-4,8.22132E-3,3.8215335E-2,1.7017769E-2,-2.500492E-2,1.0618524E-3,1.42591335E-2,-2.9511863E-4,-8.519591E-4,-1.14094615E-2,-2.024874E-2,-9.039302E-3,-2.8017612E-2,-2.0812303E-2,-3.8599386E-3,-1.6907878E-2,-1.4694566E-2,-7.910763E-3,-1.6218218E-3,2.0842392E-2,-1.9543719E-2,-3.1459272E-2,-4.4227308E-3,-2.0209841E-2,-3.369781E-2,-2.433132E-2,-4.094858E-2,-3.495373E-2,-1.9397382E-2,-2.9448649E-2,-2.366357E-2,-1.2784152E-2,-1.4985638E-3,-1.7186835E-2,-1.9994285E-2,-9.6178055E-3],"split_indices":[5,5,2,5,2,2,1,2,2,1,1,4,1,4,1,1,1,2,1,2,4,3,4,1,2,3,3,3,2,3,7,2,2,2,2,1,1,3,1,4,4,4,0,1,1,1,1,2,4,7,1,1,4,1,4,2,7,1,3,2,1,5,3,0,0,0,0,0,0,0,0,0,0,0,0,0,0,0,0,0,0,0,0,0,0,0,0,0,0,0,0,0,0,0,0,0,0,0,0,0,0,0,0,0,0,0,0,0,0,0,0,0,0,0,0,0,0,0,0,0,0,0,0,0,0],"split_type":[0,0,0,0,0,0,0,0,0,0,0,0,0,0,0,0,0,0,0,0,0,0,0,0,0,0,0,0,0,0,1,0,0,0,0,0,0,0,0,0,0,0,0,0,0,0,0,0,0,1,0,0,0,0,0,0,1,0,0,0,0,0,0,0,0,0,0,0,0,0,0,0,0,0,0,0,0,0,0,0,0,0,0,0,0,0,0,0,0,0,0,0,0,0,0,0,0,0,0,0,0,0,0,0,0,0,0,0,0,0,0,0,0,0,0,0,0,0,0,0,0,0,0,0,0],"sum_hessian":[4.06635E4,2.3624707E4,1.7038793E4,2.039872E4,3.2259868E3,5.2409243E3,1.1797869E4,1.4180732E4,6.2179873E3,1.491087E3,1.7348998E3,1.97444E3,3.2664844E3,7.8168027E3,3.9810667E3,4.6673726E3,9.51336E3,3.2095088E3,3.0084783E3,1.3476476E3,1.4343945E2,1.3372222E3,3.976776E2,5.6449365E2,1.4099462E3,2.5495579E3,7.169266E2,1.598537E3,6.2182656E3,3.5340146E3,4.4705203E2,2.9530437E3,1.7143287E3,5.2730454E3,4.240315E3,1.4702875E3,1.7392214E3,1.4106335E3,1.5978447E3,5.833357E2,7.643119E2,1.3627711E2,7.162339E0,1.3074775E3,2.97446E1,3.8342004E2,1.4257583E1,3.7061695E1,5.27432E2,6.875759E2,7.223703E2,2.0172535E3,5.323042E2,6.112469E2,1.0567969E2,1.5112307E3,8.73063E1,2.2900078E3,3.9282578E3,2.6498196E3,8.8419495E2,1.3814613E2,3.089059E2,1.5092312E3,1.4438124E3,4.3098724E2,1.2833416E3,8.5801984E2,4.415026E3,1.888725E3,2.3515898E3,7.439029E2,7.263845E2,1.575334E3,1.6388751E2,1.2347872E3,1.7584639E2,1.5514973E3,4.6347427E1,3.3677505E1,5.496582E2,1.0155848E2,6.627534E2,8.126735E1,5.5009766E1,4.7099252E2,8.3648505E2,2.258226E1,7.162339E0,2.8141568E2,1.02004364E2,7.1829042E0,7.0746784E0,2.6182903E1,1.0878791E1,5.4880974E1,4.72551E2,3.1594382E2,3.716321E2,3.3110178E2,3.912685E2,1.071497E3,9.4575665E2,8.384743E1,4.484568E2,3.3570462E2,2.7554227E2,8.9922104E1,1.5757583E1,9.825218E1,1.4129785E3,3.0169922E1,5.7136375E1,2.1480728E3,1.4193509E2,3.3439136E3,5.843442E2,3.9561694E2,2.2542026E3,5.9830206E2,2.858929E2,8.1401535E1,5.67446E1,2.4492429E2,6.3981617E1],"tree_param":{"num_deleted":"0","num_feature":"9","num_nodes":"125","size_leaf_vector":"1"}},{"base_weights":[1.5909281E-3,7.621718E-1,-1.0484655E0,8.925761E-1,-6.367183E-2,-5.3222454E-1,-1.2293369E0,1.018994E0,6.003293E-1,3.0878222E-1,-2.0826493E-1,-2.6620856E-1,-7.1864927E-1,-1.3559158E0,-8.690384E-1,1.1440754E0,8.866713E-1,8.3580786E-1,4.7073516E-1,6.9745785E-1,1.713529E-1,-3.2733646E-1,1.1663506E-1,-3.8188434E-1,-2.8591504E-2,-9.445581E-1,-5.659981E-1,-1.4228053E0,-1.1608888E0,-9.2092913E-1,-4.9861854E-1,1.0719332E0,1.2775272E0,7.9558533E-1,1.0118966E0,9.8027676E-1,7.732589E-1,3.304124E-1,5.830717E-1,3.2294926E-1,9.036731E-1,3.221032E-1,2.0561533E-2,-4.311307E-1,-1.4520326E-1,4.8199773E-2,3.2842383E-1,-2.3950665E-1,-5.4523647E-1,3.1138125E-1,-1.3428277E-1,-8.505767E-1,-1.1067544E0,-6.429455E-1,-2.4670778E-1,-1.2299174E0,-1.489943E0,-1.1829491E0,-3.2993078E-1,-7.4282515E-1,-1.0322919E0,-2.9142568E-1,-8.6442804E-1,3.0158896E-2,2.5528753E-2,3.6310367E-2,3.0882347E-2,2.1944417E-2,1.886863E-2,2.3807963E-2,2.8676085E-2,2.6062232E-2,1.7870981E-2,2.5453236E-2,1.8035397E-2,1.4213855E-2,6.5928013E-3,1.3661089E-2,2.4406552E-2,1.5401008E-2,-2.0946233E-2,2.6514966E-2,1.660669E-2,-9.894946E-3,9.439018E-3,-1.3707695E-3,1.7186292E-2,-1.3880937E-2,-7.7433223E-3,-4.8906985E-3,8.44414E-3,-5.7101506E-4,8.162592E-3,1.1028433E-2,-1.2377718E-3,-4.6450505E-3,-2.6758373E-2,-1.06258E-2,-1.8923657E-2,1.9284194E-2,1.4286968E-3,-4.6906102E-4,-6.515678E-3,-2.2073312E-2,-8.348846E-3,-2.4855081E-2,-3.842534E-2,-1.8291553E-2,-7.7488283E-3,-8.744264E-3,7.935017E-3,-2.462702E-2,-3.185493E-2,-3.8762003E-2,-3.33444E-2,-2.0485926E-2,-3.0356081E-2,-3.2991398E-2,3.48705E-3,-1.3560367E-2,-1.9934297E-2,-2.7459081E-2,-1.3126699E-2,-8.952931E-3,1.7023277E-2,-1.4131338E-2,-3.194664E-2],"categories":[0,1,2,4,6,7,10,11,12,1,2,4,5,7,8,1,3,7,11,12,0,1,2,3,4,6,8,10,11,12,0,1,3,8,11,12,0,1,2,7,8,10,0,1,2,5,7,11,12,5,1,2,3,4,11,0,1,2,3,4,5,8,9,10,12,3,4,8,1,2,3,5,7,8,9,2,3,5,8],"categories_nodes":[20,24,30,33,35,39,46,47,48,49,52,59,62],"categories_segments":[0,9,15,20,30,36,42,49,50,55,65,68,75],"categories_sizes":[9,6,5,10,6,6,7,1,5,10,3,7,4],"default_left":[0,0,0,0,0,0,0,0,0,0,0,0,0,0,0,0,0,0,0,0,1,0,0,0,1,0,0,0,0,0,1,0,0,1,0,1,0,0,0,1,0,0,0,0,0,0,1,1,1,1,0,0,1,0,0,0,0,0,0,1,0,0,1,0,0,0,0,0,0,0,0,0,0,0,0,0,0,0,0,0,0,0,0,0,0,0,0,0,0,0,0,0,0,0,0,0,0,0,0,0,0,0,0,0,0,0,0,0,0,0,0,0,0,0,0,0,0,0,0,0,0,0,0,0,0,0,0],"id":1,"left_children":[1,3,5,7,9,11,13,15,17,19,21,23,25,27,29,31,33,35,37,39,41,43,45,47,49,51,53,55,57,59,61,63,65,67,69,71,73,75,77,79,81,83,85,87,89,91,93,95,97,99,101,103,105,107,109,111,113,115,117,119,121,123,125,-1,-1,-1,-1,-1,-1,-1,-1,-1,-1,-1,-1,-1,-1,-1,-1,-1,-1,-1,-1,-1,-1,-1,-1,-1,-1,-1,-1,-1,-1,-1,-1,-1,-1,-1,-1,-1,-1,-1,-1,-1,-1,-1,-1,-1,-1,-1,-1,-1,-1,-1,-1,-1,-1,-1,-1,-1,-1,-1,-1,-1,-1,-1,-1],"loss_changes":[3.2619072E4,2.5511143E3,1.6014102E3,7.552832E2,1.7391357E2,2.2048145E2,5.787246E2,2.3571094E2,1.8813135E2,4.7960014E1,9.009332E1,5.0318222E1,8.9786255E1,1.218418E2,6.3073242E1,6.993359E1,7.860889E1,1.9276855E1,6.2554688E1,1.7800987E1,1.5072554E1,3.2037674E1,8.926559E0,2.8452621E1,2.156908E1,1.5476196E1,3.8122955E1,8.979297E1,4.35813E1,5.691992E1,3.0478897E1,2.9939453E1,1.6122559E1,1.241748E1,2.1937256E1,1.1113403E1,1.795868E1,2.7697433E1,2.9441406E1,2.894743E1,5.2625885E0,1.3725258E1,1.7158724E1,1.6225311E1,1.5385391E1,9.495408E0,6.6845055E0,2.8759617E1,1.4235092E1,1.6484215E1,6.688898E0,1.22621765E1,1.7396301E1,3.8178833E1,1.8040009E1,2.121997E1,5.1998047E1,3.0678223E1,2.9619776E1,1.2487427E1,6.3719116E1,1.728415E1,1.7667358E1,0E0,0E0,0E0,0E0,0E0,0E0,0E0,0E0,0E0,0E0,0E0,0E0,0E0,0E0,0E0,0E0,0E0,0E0,0E0,0E0,0E0,0E0,0E0,0E0,0E0,0E0,0E0,0E0,0E0,0E0,0E0,0E0,0E0,0E0,0E0,0E0,0E0,0E0,0E0,0E0,0E0,0E0,0E0,0E0,0E0,0E0,0E0,0E0,0E0,0E0,0E0,0E0,0E0,0E0,0E0,0E0,0E0,0E0,0E0,0E0,0E0,0E0,0E0,0E0],"parents":[2147483647,0,0,1,1,2,2,3,3,4,4,5,5,6,6,7,7,8,8,9,9,10,10,11,11,12,12,13,13,14,14,15,15,16,16,17,17,18,18,19,19,20,20,21,21,22,22,23,23,24,24,25,25,26,26,27,27,28,28,29,29,30,30,31,31,32,32,33,33,34,34,35,35,36,36,37,37,38,38,39,39,40,40,41,41,42,42,43,43,44,44,45,45,46,46,47,47,48,48,49,49,50,50,51,51,52,52,53,53,54,54,55,55,56,56,57,57,58,58,59,59,60,60,61,61,62,62],"right_children":[2,4,6,8,10,12,14,16,18,20,22,24,26,28,30,32,34,36,38,40,42,44,46,48,50,52,54,56,58,60,62,64,66,68,70,72,74,76,78,80,82,84,86,88,90,92,94,96,98,100,102,104,106,108,110,112,114,116,118,120,122,124,126,-1,-1,-1,-1,-1,-1,-1,-1,-1,-1,-1,-1,-1,-1,-1,-1,-1,-1,-1,-1,-1,-1,-1,-1,-1,-1,-1,-1,-1,-1,-1,-1,-1,-1,-1,-1,-1,-1,-1,-1,-1,-1,-1,-1,-1,-1,-1,-1,-1,-1,-1,-1,-1,-1,-1,-1,-1,-1,-1,-1,-1,-1,-1,-1],"split_conditions":[3E0,2E0,3.6078438E-1,1E0,2.797695E-1,2.023891E-1,4.4920653E-1,3.9941627E-1,3.170122E-1,8.000487E-2,5.11936E-1,5.1651484E-1,3.0930483E-1,5.2676153E-1,6.452894E-1,5.573904E-1,4.2542574E-1,1.03051625E-1,3.3280376E-1,3.569992E-1,1E-45,4.9398342E-1,6.539457E-1,1.3042304E-1,1E-45,3.170122E-1,6.243311E-1,5.110886E-1,7.815203E-1,5.026633E-1,1E-45,1.0837958E-1,5.7973877E-2,1E-45,6.082027E-1,1E-45,1.6266774E-1,4.2766386E-1,6.952332E-1,1E-45,5.754401E-1,1.03051625E-1,6.952332E-1,2.7564275E-1,7.431745E-1,5.045032E-1,1E-45,1E-45,1E-45,1E-45,6.4123034E-1,7.529504E-1,1E-45,5.837947E-1,4.9151954E-1,1.4865915E-1,2.9911193E-1,4.0500012E-1,9.200065E-2,1E-45,4.8427838E-1,6.5789765E-1,1E-45,3.0158896E-2,2.5528753E-2,3.6310367E-2,3.0882347E-2,2.1944417E-2,1.886863E-2,2.3807963E-2,2.8676085E-2,2.6062232E-2,1.7870981E-2,2.5453236E-2,1.8035397E-2,1.4213855E-2,6.5928013E-3,1.3661089E-2,2.4406552E-2,1.5401008E-2,-2.0946233E-2,2.6514966E-2,1.660669E-2,-9.894946E-3,9.439018E-3,-1.3707695E-3,1.7186292E-2,-1.3880937E-2,-7.7433223E-3,-4.8906985E-3,8.44414E-3,-5.7101506E-4,8.162592E-3,1.1028433E-2,-1.2377718E-3,-4.6450505E-3,-2.6758373E-2,-1.06258E-2,-1.8923657E-2,1.9284194E-2,1.4286968E-3,-4.6906102E-4,-6.515678E-3,-2.2073312E-2,-8.348846E-3,-2.4855081E-2,-3.842534E-2,-1.8291553E-2,-7.7488283E-3,-8.744264E-3,7.935017E-3,-2.462702E-2,-3.185493E-2,-3.8762003E-2,-3.33444E-2,-2.0485926E-2,-3.0356081E-2,-3.2991398E-2,3.48705E-3,-1.3560367E-2,-1.9934297E-2,-2.7459081E-2,-1.3126699E-2,-8.952931E-3,1.7023277E-2,-1.4131338E-2,-3.194664E-2],"split_indices":[5,5,2,5,2,2,1,2,2,2,1,1,1,3,1,1,1,2,1,1,6,3,1,2,7,2,1,2,3,2,6,2,2,6,1,6,3,2,1,6,1,2,1,1,3,3,6,6,6,6,1,3,6,3,3,3,1,2,1,7,3,2,7,0,0,0,0,0,0,0,0,0,0,0,0,0,0,0,0,0,0,0,0,0,0,0,0,0,0,0,0,0,0,0,0,0,0,0,0,0,0,0,0,0,0,0,0,0,0,0,0,0,0,0,0,0,0,0,0,0,0,0,0,0,0,0,0],"split_type":[0,0,0,0,0,0,0,0,0,0,0,0,0,0,0,0,0,0,0,0,1,0,0,0,1,0,0,0,0,0,1,0,0,1,0,1,0,0,0,1,0,0,0,0,0,0,1,1,1,1,0,0,1,0,0,0,0,0,0,1,0,0,1,0,0,0,0,0,0,0,0,0,0,0,0,0,0,0,0,0,0,0,0,0,0,0,0,0,0,0,0,0,0,0,0,0,0,0,0,0,0,0,0,0,0,0,0,0,0,0,0,0,0,0,0,0,0,0,0,0,0,0,0,0,0,0,0],"sum_hessian":[4.0842668E4,2.368636E4,1.7156309E4,2.0456537E4,3.2298237E3,4.451788E3,1.2704521E4,1.427884E4,6.1776973E3,9.026523E2,2.3271714E3,1.8349972E3,2.6167908E3,9.400933E3,3.303589E3,7.3390293E3,6.93981E3,2.1921187E3,3.9855784E3,2.3520796E2,6.6744434E2,1.7036906E3,6.234809E2,1.2333414E3,6.016557E2,1.0543729E3,1.5624178E3,6.9988394E3,2.4020933E3,2.8969402E3,4.0664893E2,4.765365E3,2.5736643E3,4.019005E3,2.9208052E3,6.6080505E2,1.5313136E3,1.7732572E3,2.212321E3,8.4049385E1,1.5115857E2,3.3278387E2,3.3466046E2,1.0841909E3,6.194997E2,4.7228354E2,1.5119736E2,6.5996716E2,5.733743E2,1.4201776E2,4.596379E2,6.6880975E2,3.8556317E2,1.258245E3,3.0417282E2,1.8083314E3,5.1905083E3,2.3396182E3,6.2474957E1,1.1155885E3,1.7813517E3,2.6014798E2,1.4650095E2,1.1711339E3,3.5942312E3,4.2565326E2,2.148011E3,1.2054993E3,2.8135056E3,2.1024185E3,8.1838666E2,5.2479517E2,1.3600986E2,2.471346E2,1.284179E3,3.7767392E2,1.3955834E3,2.0390833E3,1.7323787E2,6.722498E1,1.6824398E1,8.884807E1,6.231051E1,2.4148819E1,3.0863504E2,3.003445E2,3.4315952E1,5.2564764E2,5.585433E2,5.60676E2,5.882367E1,3.757461E2,9.653745E1,1.1656191E2,3.463545E1,6.2112274E2,3.8844406E1,3.7121902E2,2.021553E2,4.982616E1,9.2191605E1,2.4255957E2,2.1707834E2,6.238177E2,4.499204E1,3.1003494E2,7.552823E1,9.8352344E2,2.747216E2,2.570836E2,4.708923E1,3.1536987E2,1.4929615E3,3.565906E3,1.624602E3,2.2024585E2,2.1193723E3,2.0213963E1,4.2260998E1,2.556421E2,8.5994635E2,1.5599607E3,2.2139093E2,2.4339168E2,1.6756317E1,8.630187E1,6.019907E1],"tree_param":{"num_deleted":"0","num_feature":"9","num_nodes":"127","size_leaf_vector":"1"}},{"base_weights":[3.980394E-3,7.440857E-1,-1.0173138E0,8.704029E-1,-5.9567336E-2,-1.1345254E0,-5.291143E-1,9.963422E-1,5.7724535E-1,-2.3473363E-1,1.2763526E-1,-1.1998346E0,-8.3845127E-1,-6.0465187E-1,-9.451948E-3,8.9746857E-1,1.1257824E0,4.2125478E-1,6.7992234E-1,-3.9467832E-1,-3.0273417E-2,7.4042186E-2,6.146892E-1,-1.3040091E0,-9.9871606E-1,-8.818005E-1,-1.1376454E-1,-6.411298E-1,2.5450537E-1,-1.1058691E-1,5.8474314E-1,8.837583E-1,1.1928234E0,1.0464169E0,1.1942495E0,3.2998946E-1,6.611197E-1,6.399228E-1,1.0088897E0,-4.5063058E-1,2.028208E-2,-1.3644518E-1,3.39498E-1,-9.578249E-3,2.3922709E-1,9.403592E-1,4.0497226E-1,-1.3714601E0,-9.763986E-1,-1.0501494E0,-4.7477803E-1,-1.0436332E0,-7.1068233E-1,-2.6772696E-1,3.2848556E-2,-7.775002E-1,-3.964612E-1,5.5159605E-1,-8.4916614E-2,-3.3536467E-1,3.249333E-2,3.3559676E-2,3.4310794E-1,2.1563357E-2,2.7366146E-2,3.038451E-2,-4.1632622E-4,2.4367899E-2,2.8781883E-2,3.314929E-2,2.876612E-2,6.60035E-3,1.3119183E-2,1.9790664E-2,1.3955171E-2,1.5191686E-2,2.29095E-2,2.5536973E-2,1.2664512E-3,-1.202043E-2,4.5235786E-3,9.676179E-3,-1.2387214E-2,-8.742116E-3,1.2516159E-3,7.032249E-3,3.7806932E-2,3.749955E-3,-2.6640468E-3,4.4915252E-3,1.8827025E-2,6.827583E-3,2.9658133E-2,1.8437818E-2,5.994806E-3,-3.5589747E-2,-2.3659242E-2,-2.6970185E-2,-1.8095404E-2,-2.716526E-2,-1.4526074E-2,1.2868788E-3,-1.6719503E-2,-2.8017193E-2,-1.3821185E-2,-1.9154184E-2,-5.942656E-3,1.7083447E-2,-1.1876601E-2,-2.1570643E-2,-1.5319676E-2,-7.1381913E-3,-1.4040921E-2,1.03396345E-2,3.1362224E-2,2.9654496E-3,-1.8404713E-2,-3.3215987E-5,-1.3908191E-2,4.70347E-3,-5.7872054E-3,3.105122E-3,2.3811784E-2],"categories":[0,1,3,4,5,6,9,1,2,4,0,1,2,3,6,7,0,4,5,7,8,9,0,1,2,4,5,8,9,1,3,4,5,7,8,1,2,3,4,5,7,1,2,8,4,5,8],"categories_nodes":[22,28,36,40,43,50,53,56,60],"categories_segments":[0,7,10,16,22,29,35,41,44],"categories_sizes":[7,3,6,6,7,6,6,3,3],"default_left":[0,0,0,0,0,0,0,0,0,0,0,0,0,0,0,0,0,0,0,0,0,0,1,0,0,0,0,0,1,0,0,0,0,0,0,0,1,0,0,0,1,0,0,1,0,0,0,0,0,0,1,0,0,1,0,0,1,0,0,0,1,0,0,0,0,0,0,0,0,0,0,0,0,0,0,0,0,0,0,0,0,0,0,0,0,0,0,0,0,0,0,0,0,0,0,0,0,0,0,0,0,0,0,0,0,0,0,0,0,0,0,0,0,0,0,0,0,0,0,0,0,0,0],"id":2,"left_children":[1,3,5,7,9,11,13,15,17,19,21,23,25,27,29,31,33,35,37,39,41,43,45,47,49,51,53,55,57,59,61,63,65,67,69,71,73,75,77,79,81,83,85,87,89,91,93,95,97,99,101,103,105,107,-1,109,111,113,115,117,119,-1,121,-1,-1,-1,-1,-1,-1,-1,-1,-1,-1,-1,-1,-1,-1,-1,-1,-1,-1,-1,-1,-1,-1,-1,-1,-1,-1,-1,-1,-1,-1,-1,-1,-1,-1,-1,-1,-1,-1,-1,-1,-1,-1,-1,-1,-1,-1,-1,-1,-1,-1,-1,-1,-1,-1,-1,-1,-1,-1,-1,-1],"loss_changes":[3.0834428E4,2.4013887E3,9.8032227E2,7.541953E2,1.0537491E2,2.6663672E2,1.3010632E2,1.8236523E2,9.806445E1,5.417501E1,4.0311783E1,2.3652148E2,7.8202515E1,9.092041E1,2.520728E1,3.2195312E1,3.2950684E1,5.3113525E1,4.8234253E1,2.1737762E1,2.8586266E1,1.9388819E1,1.0068016E1,1.6408789E2,1.036875E2,6.474768E1,3.0932068E1,9.239392E1,1.2005997E1,1.1693904E1,1.0743786E1,2.7916016E1,1.2706726E1,2.0566162E1,1.667041E1,2.2336807E1,8.632324E0,2.6718018E1,6.4270325E0,1.6978363E1,2.09869E1,2.2868446E1,1.0338928E1,1.4485635E1,1.4037775E1,9.536018E0,4.882367E0,1.528584E2,3.3617676E1,6.800464E1,3.61205E1,4.8249634E1,3.1741272E1,2.5546207E1,0E0,2.5385132E1,1.8060287E1,5.592764E0,7.4681544E0,1.0381981E1,9.108203E0,0E0,5.928864E0,0E0,0E0,0E0,0E0,0E0,0E0,0E0,0E0,0E0,0E0,0E0,0E0,0E0,0E0,0E0,0E0,0E0,0E0,0E0,0E0,0E0,0E0,0E0,0E0,0E0,0E0,0E0,0E0,0E0,0E0,0E0,0E0,0E0,0E0,0E0,0E0,0E0,0E0,0E0,0E0,0E0,0E0,0E0,0E0,0E0,0E0,0E0,0E0,0E0,0E0,0E0,0E0,0E0,0E0,0E0,0E0,0E0,0E0,0E0,0E0],"parents":[2147483647,0,0,1,1,2,2,3,3,4,4,5,5,6,6,7,7,8,8,9,9,10,10,11,11,12,12,13,13,14,14,15,15,16,16,17,17,18,18,19,19,20,20,21,21,22,22,23,23,24,24,25,25,26,26,27,27,28,28,29,29,30,30,31,31,32,32,33,33,34,34,35,35,36,36,37,37,38,38,39,39,40,40,41,41,42,42,43,43,44,44,45,45,46,46,47,47,48,48,49,49,50,50,51,51,52,52,53,53,55,55,56,56,57,57,58,58,59,59,60,60,62,62],"right_children":[2,4,6,8,10,12,14,16,18,20,22,24,26,28,30,32,34,36,38,40,42,44,46,48,50,52,54,56,58,60,62,64,66,68,70,72,74,76,78,80,82,84,86,88,90,92,94,96,98,100,102,104,106,108,-1,110,112,114,116,118,120,-1,122,-1,-1,-1,-1,-1,-1,-1,-1,-1,-1,-1,-1,-1,-1,-1,-1,-1,-1,-1,-1,-1,-1,-1,-1,-1,-1,-1,-1,-1,-1,-1,-1,-1,-1,-1,-1,-1,-1,-1,-1,-1,-1,-1,-1,-1,-1,-1,-1,-1,-1,-1,-1,-1,-1,-1,-1,-1,-1,-1,-1],"split_conditions":[3E0,2E0,5.212572E-1,1E0,3.9566046E-1,5.837947E-1,5.399333E-1,4.6506494E-1,3.2510915E-1,4.9398342E-1,7.047552E-1,3.454503E-1,7.968347E-1,6.466671E-1,6.452894E-1,7.815203E-1,5.803378E-1,5.9481305E-1,6.952332E-1,7.2524256E-1,5.548518E-1,4.7120804E-1,1E-45,6.430497E-1,6.3123274E-1,2.2867812E-1,3.3809206E-1,6.278218E-1,1E-45,5.794889E-1,6.64323E-1,7.3612154E-1,5.1142263E-1,4.7764626E-1,1.17749766E-1,6.329068E-1,1E-45,6.381148E-1,5.9399146E-1,8.075572E-1,1E-45,4.0708452E-1,7.431745E-1,1E-45,5.541318E-1,1.6266774E-1,1.7425556E-1,6.9416875E-1,7.454567E-1,6.6012484E-1,1E-45,5.5638224E-1,5.3621745E-1,1E-45,3.2848556E-2,4.6027958E-1,1E-45,3.3371198E-1,2.8041664E-1,2.197366E-1,1E-45,3.3559676E-2,6.2234646E-1,2.1563357E-2,2.7366146E-2,3.038451E-2,-4.1632622E-4,2.4367899E-2,2.8781883E-2,3.314929E-2,2.876612E-2,6.60035E-3,1.3119183E-2,1.9790664E-2,1.3955171E-2,1.5191686E-2,2.29095E-2,2.5536973E-2,1.2664512E-3,-1.202043E-2,4.5235786E-3,9.676179E-3,-1.2387214E-2,-8.742116E-3,1.2516159E-3,7.032249E-3,3.7806932E-2,3.749955E-3,-2.6640468E-3,4.4915252E-3,1.8827025E-2,6.827583E-3,2.9658133E-2,1.8437818E-2,5.994806E-3,-3.5589747E-2,-2.3659242E-2,-2.6970185E-2,-1.8095404E-2,-2.716526E-2,-1.4526074E-2,1.2868788E-3,-1.6719503E-2,-2.8017193E-2,-1.3821185E-2,-1.9154184E-2,-5.942656E-3,1.7083447E-2,-1.1876601E-2,-2.1570643E-2,-1.5319676E-2,-7.1381913E-3,-1.4040921E-2,1.03396345E-2,3.1362224E-2,2.9654496E-3,-1.8404713E-2,-3.3215987E-5,-1.3908191E-2,4.70347E-3,-5.7872054E-3,3.105122E-3,2.3811784E-2],"split_indices":[5,5,1,5,1,3,3,1,1,3,1,1,3,0,1,3,1,3,1,4,4,3,7,0,0,1,1,1,7,3,1,0,0,3,0,4,7,3,0,0,7,0,3,7,0,3,4,4,0,4,7,0,4,7,0,4,7,4,3,4,7,0,3,0,0,0,0,0,0,0,0,0,0,0,0,0,0,0,0,0,0,0,0,0,0,0,0,0,0,0,0,0,0,0,0,0,0,0,0,0,0,0,0,0,0,0,0,0,0,0,0,0,0,0,0,0,0,0,0,0,0,0,0],"split_type":[0,0,0,0,0,0,0,0,0,0,0,0,0,0,0,0,0,0,0,0,0,0,1,0,0,0,0,0,1,0,0,0,0,0,0,0,1,0,0,0,1,0,0,1,0,0,0,0,0,0,1,0,0,1,0,0,1,0,0,0,1,0,0,0,0,0,0,0,0,0,0,0,0,0,0,0,0,0,0,0,0,0,0,0,0,0,0,0,0,0,0,0,0,0,0,0,0,0,0,0,0,0,0,0,0,0,0,0,0,0,0,0,0,0,0,0,0,0,0,0,0,0,0],"sum_hessian":[4.0793598E4,2.3653104E4,1.7140494E4,2.0440633E4,3.2124702E3,1.3821474E4,3.3190215E3,1.4297447E4,6.1431865E3,1.6603899E3,1.5520802E3,1.1322784E4,2.4986892E3,2.897306E3,4.2171555E2,8.107192E3,6.1902554E3,2.439694E3,3.7034924E3,9.307957E2,7.295942E2,1.3987937E3,1.532865E2,7.458082E3,3.8647021E3,2.3572732E3,1.4141594E2,2.7796355E3,1.176705E2,3.608159E2,6.089966E1,7.7485986E3,3.5859335E2,2.869123E3,3.321132E3,1.7681987E3,6.714954E2,3.3028591E3,4.006335E2,8.2082007E2,1.0997565E2,5.6746545E2,1.6212866E2,9.2751843E2,4.7127527E2,5.9462563E1,9.382394E1,6.1839136E3,1.2741685E3,3.5186987E3,3.4600348E2,1.2105608E3,1.1467125E3,1.27909E2,1.3506945E1,1.7840255E3,9.956099E2,6.3198334E1,5.4472164E1,1.4112164E2,2.1969424E2,1.4311013E1,4.6588646E1,7.1845557E3,5.64043E2,3.5057965E2,8.013717E0,1.7882603E3,1.0808629E3,7.144012E2,2.606731E3,1.3328269E3,4.3537186E2,2.8550827E2,3.8598715E2,2.9919915E3,3.1086768E2,3.931174E2,7.5161133E0,7.811119E2,3.9708202E1,6.459284E1,4.5382805E1,2.6453766E2,3.0292783E2,1.5494637E2,7.1822953E0,3.496455E2,5.778729E2,4.238123E2,4.746298E1,1.6645962E1,4.28166E1,3.0152979E1,6.367096E1,5.421537E3,7.623763E2,8.8871326E2,3.8545523E2,3.2288743E3,2.8982446E2,9.390463E1,2.5209883E2,1.0349573E3,1.7560345E2,1.0182701E3,1.284424E2,2.277553E1,1.0513347E2,1.1470833E3,6.369422E2,6.036298E2,3.9198007E2,5.340781E1,9.790526E0,4.12045E1,1.3267669E1,5.7133106E1,8.398854E1,1.3882164E2,8.08726E1,3.474359E1,1.1845056E1],"tree_param":{"num_deleted":"0","num_feature":"9","num_nodes":"123","size_leaf_vector":"1"}},{"base_weights":[-5.6481366E-3,8.487342E-1,-8.619604E-1,9.7757655E-1,5.5146796E-1,-7.563537E-2,-1.0090481E0,9.029008E-1,1.1564883E0,4.8141837E-1,7.5774884E-1,-1.9364737E-1,1.9090715E-1,-1.1834371E0,-6.992041E-1,8.809369E-1,1.059406E0,1.137432E0,3.3231337E-2,4.1641727E-1,7.834201E-1,6.9834936E-1,9.372574E-1,-3.1228748E-1,-2.48819E-2,7.390784E-2,4.6616793E-1,-1.261351E0,-8.9454365E-1,-7.9079515E-1,-2.9544917E-1,8.291015E-1,9.3670446E-1,1.0010041E0,1.2007171E0,1.0592349E0,1.195536E0,3.443317E-1,4.9490622E-1,8.645012E-1,6.235573E-1,6.756813E-1,1.0493029E0,1.2165581E0,8.750365E-1,-4.23999E-1,-2.0604892E-1,-6.5754354E-2,3.389639E-1,1.3057663E-1,-2.1189332E-1,6.0473967E-1,2.2499496E-1,-1.3132118E0,-1.128425E0,-9.639657E-1,-3.8982385E-1,-8.671011E-1,-4.8266122E-1,-3.2590133E-1,2.5863367E-1,2.9266227E-2,2.0473968E-2,2.4371779E-2,2.1653581E-2,2.784311E-2,2.2638718E-2,3.1784464E-2,2.6680633E-2,2.873798E-2,2.4731934E-2,2.9268881E-2,3.585708E-2,1.1094707E-2,5.5723954E-3,1.2529038E-2,2.3009165E-3,1.3664175E-2,2.3101306E-2,1.0466842E-2,2.1400621E-2,1.9376261E-2,1.5770774E-2,3.145339E-2,1.8530797E-2,3.3129882E-2,2.1920942E-2,2.0669658E-2,2.861181E-2,-5.387065E-3,-1.5594266E-2,2.277643E-3,-6.3816686E-3,-8.813212E-3,-1.0976985E-4,1.787597E-2,2.0641505E-3,8.427547E-3,1.4372867E-3,2.3652415E-3,-1.0861987E-2,6.0861227E-3,1.7669948E-2,7.971819E-3,-1.1644664E-2,-3.3247944E-2,-2.9392092E-2,-2.6035583E-2,-3.0014692E-2,-2.6705801E-2,-2.1509692E-2,-5.760158E-3,-2.1293413E-2,-2.3968853E-2,-1.9619007E-2,-1.4771938E-2,-3.0926382E-3,-9.144955E-3,2.3758512E-3,1.711854E-2,-5.3851902E-3],"categories":[0,1,4,7,8,11,12,0,1,2,3,4,5,7,8,9,11,12,0,1,2,3,7,8,11,12,0,1,4,6,9,10,11,12,0,3,4,5,6,7,10,11,12,0,1,5,8,9,10,11,12,0,4,5,6,7,8,10,11,12,0,1,3,4,6,7,11,12,0,1,2,3,5,7,8,9,11,12,5,6,7,10,11,0,1,2,3,4,6,7,8,11,12,0,1,2,3,4,5,6,7,8,11,12,0,1,2,3,6,7,9,10,11,2,5,6,7,1,7,1,2,4],"categories_nodes":[20,22,26,32,33,34,35,37,41,45,48,49,50,54,56,60],"categories_segments":[0,7,18,26,34,43,51,60,68,78,83,93,104,113,117,119],"categories_sizes":[7,11,8,8,9,8,9,8,10,5,10,11,9,4,2,3],"default_left":[0,0,0,0,0,0,0,0,0,0,0,0,0,0,0,0,0,0,0,0,1,0,1,0,0,0,1,0,0,0,0,0,1,1,1,1,0,1,0,0,0,1,0,0,0,1,0,0,1,1,1,0,0,0,1,0,1,0,0,0,1,0,0,0,0,0,0,0,0,0,0,0,0,0,0,0,0,0,0,0,0,0,0,0,0,0,0,0,0,0,0,0,0,0,0,0,0,0,0,0,0,0,0,0,0,0,0,0,0,0,0,0,0,0,0,0,0,0,0,0,0],"id":3,"left_children":[1,3,5,7,9,11,13,15,17,19,21,23,25,27,29,31,33,35,-1,37,39,41,43,45,47,49,51,53,55,57,59,61,63,65,67,69,71,73,75,77,79,81,83,85,87,89,91,93,95,97,99,101,103,105,107,109,111,113,115,117,119,-1,-1,-1,-1,-1,-1,-1,-1,-1,-1,-1,-1,-1,-1,-1,-1,-1,-1,-1,-1,-1,-1,-1,-1,-1,-1,-1,-1,-1,-1,-1,-1,-1,-1,-1,-1,-1,-1,-1,-1,-1,-1,-1,-1,-1,-1,-1,-1,-1,-1,-1,-1,-1,-1,-1,-1,-1,-1,-1,-1],"loss_changes":[2.9666773E4,7.7694336E2,2.3420068E3,1.885459E2,8.832312E1,1.0039647E2,9.212617E2,3.375244E1,1.3476074E1,8.961145E1,1.6084473E1,4.4210457E1,3.1361069E1,2.4504102E2,2.2690991E2,2.4796875E1,9.45813E0,1.6435059E1,0E0,2.1093811E1,1.0062164E1,8.78241E0,6.0568237E0,1.5223778E1,1.3521407E1,1.1112829E1,9.48489E0,5.8506836E1,8.086743E1,1.17343506E2,1.920327E1,9.097656E0,1.1448486E1,8.742859E0,2.802124E0,9.392944E0,9.316406E0,2.3874908E1,6.1389465E0,1.0394501E1,1.2777809E1,4.3121643E0,3.9784546E0,1.9973526E0,3.2397308E0,2.6323914E1,1.0064249E1,1.445855E1,8.668887E0,8.59309E0,7.8902893E0,6.7122803E0,7.041778E0,1.8117188E1,1.4739502E1,2.1588257E1,2.0409103E1,2.9820068E1,3.9393906E1,1.9015892E1,1.2125848E1,0E0,0E0,0E0,0E0,0E0,0E0,0E0,0E0,0E0,0E0,0E0,0E0,0E0,0E0,0E0,0E0,0E0,0E0,0E0,0E0,0E0,0E0,0E0,0E0,0E0,0E0,0E0,0E0,0E0,0E0,0E0,0E0,0E0,0E0,0E0,0E0,0E0,0E0,0E0,0E0,0E0,0E0,0E0,0E0,0E0,0E0,0E0,0E0,0E0,0E0,0E0,0E0,0E0,0E0,0E0,0E0,0E0,0E0,0E0,0E0],"parents":[2147483647,0,0,1,1,2,2,3,3,4,4,5,5,6,6,7,7,8,8,9,9,10,10,11,11,12,12,13,13,14,14,15,15,16,16,17,17,19,19,20,20,21,21,22,22,23,23,24,24,25,25,26,26,27,27,28,28,29,29,30,30,31,31,32,32,33,33,34,34,35,35,36,36,37,37,38,38,39,39,40,40,41,41,42,42,43,43,44,44,45,45,46,46,47,47,48,48,49,49,50,50,51,51,52,52,53,53,54,54,55,55,56,56,57,57,58,58,59,59,60,60],"right_children":[2,4,6,8,10,12,14,16,18,20,22,24,26,28,30,32,34,36,-1,38,40,42,44,46,48,50,52,54,56,58,60,62,64,66,68,70,72,74,76,78,80,82,84,86,88,90,92,94,96,98,100,102,104,106,108,110,112,114,116,118,120,-1,-1,-1,-1,-1,-1,-1,-1,-1,-1,-1,-1,-1,-1,-1,-1,-1,-1,-1,-1,-1,-1,-1,-1,-1,-1,-1,-1,-1,-1,-1,-1,-1,-1,-1,-1,-1,-1,-1,-1,-1,-1,-1,-1,-1,-1,-1,-1,-1,-1,-1,-1,-1,-1,-1,-1,-1,-1,-1,-1],"split_conditions":[2E0,1E0,3E0,5.461577E-1,5.461577E-1,5.0664175E-1,4.1007343E-1,6.704149E-1,7.8934455E-1,6.2801933E-1,6.952332E-1,4.9398342E-1,6.539457E-1,5.7742196E-1,6.278218E-1,3.352181E-1,3.5432124E-1,2.9490417E-1,3.3231337E-2,3.3073568E-1,1E-45,6.381148E-1,1E-45,2.7564275E-1,7.529504E-1,6.2067866E-1,1E-45,2.9594842E-1,7.529504E-1,5.2273095E-1,8.149819E-1,1.5260965E-2,1E-45,1E-45,1E-45,1E-45,6.6568184E-1,1E-45,6.136743E-1,9.7797036E-2,7.108519E-1,1E-45,6.704149E-1,3.6679775E-1,8.559417E-1,1E-45,7.81994E-2,1.0408145E-1,1E-45,1E-45,1E-45,1.1470723E-1,4.4591647E-1,5.13452E-1,1E-45,1.714777E-1,1E-45,5.015277E-1,5.461577E-1,5.399333E-1,1E-45,2.9266227E-2,2.0473968E-2,2.4371779E-2,2.1653581E-2,2.784311E-2,2.2638718E-2,3.1784464E-2,2.6680633E-2,2.873798E-2,2.4731934E-2,2.9268881E-2,3.585708E-2,1.1094707E-2,5.5723954E-3,1.2529038E-2,2.3009165E-3,1.3664175E-2,2.3101306E-2,1.0466842E-2,2.1400621E-2,1.9376261E-2,1.5770774E-2,3.145339E-2,1.8530797E-2,3.3129882E-2,2.1920942E-2,2.0669658E-2,2.861181E-2,-5.387065E-3,-1.5594266E-2,2.277643E-3,-6.3816686E-3,-8.813212E-3,-1.0976985E-4,1.787597E-2,2.0641505E-3,8.427547E-3,1.4372867E-3,2.3652415E-3,-1.0861987E-2,6.0861227E-3,1.7669948E-2,7.971819E-3,-1.1644664E-2,-3.3247944E-2,-2.9392092E-2,-2.6035583E-2,-3.0014692E-2,-2.6705801E-2,-2.1509692E-2,-5.760158E-3,-2.1293413E-2,-2.3968853E-2,-1.9619007E-2,-1.4771938E-2,-3.0926382E-3,-9.144955E-3,2.3758512E-3,1.711854E-2,-5.3851902E-3],"split_indices":[5,5,5,1,1,1,1,3,1,3,1,3,1,3,1,1,1,3,0,1,6,3,6,1,3,1,6,1,3,3,1,3,6,6,6,6,3,6,3,1,3,6,3,3,1,6,3,1,6,6,6,3,3,3,7,1,7,1,1,3,7,0,0,0,0,0,0,0,0,0,0,0,0,0,0,0,0,0,0,0,0,0,0,0,0,0,0,0,0,0,0,0,0,0,0,0,0,0,0,0,0,0,0,0,0,0,0,0,0,0,0,0,0,0,0,0,0,0,0,0,0],"split_type":[0,0,0,0,0,0,0,0,0,0,0,0,0,0,0,0,0,0,0,0,1,0,1,0,0,0,1,0,0,0,0,0,1,1,1,1,0,1,0,0,0,1,0,0,0,1,0,0,1,1,1,0,0,0,1,0,1,0,0,0,1,0,0,0,0,0,0,0,0,0,0,0,0,0,0,0,0,0,0,0,0,0,0,0,0,0,0,0,0,0,0,0,0,0,0,0,0,0,0,0,0,0,0,0,0,0,0,0,0,0,0,0,0,0,0,0,0,0,0,0,0],"sum_hessian":[4.054948E4,2.0297441E4,2.0252037E4,1.4159382E4,6.1380605E3,3.191645E3,1.7060393E4,9.991029E3,4.1683525E3,4.5831895E3,1.5548712E3,2.2129585E3,9.786865E2,1.0915704E4,6.1446875E3,8.76324E3,1.2277892E3,3.769429E3,3.9892343E2,3.7722927E3,8.1089667E2,1.1696041E3,3.8526703E2,1.2984268E3,9.145318E2,6.8754205E2,2.9114447E2,8.596223E3,2.319482E3,5.0079053E3,1.1367823E3,4.544667E3,4.218573E3,8.703607E2,3.5742853E2,1.6092332E3,2.1601958E3,1.9683713E3,1.8039213E3,5.36729E2,2.7416763E2,1.0994968E3,7.010731E1,6.924683E1,3.160202E2,6.315322E2,6.6689453E2,8.229145E2,9.161731E1,5.746388E2,1.12903244E2,1.8410922E2,1.07035255E2,6.181926E3,2.4142966E3,2.0384934E3,2.8098862E2,4.0131074E3,9.9479755E2,1.0780701E3,5.8712257E1,7.8185616E1,4.4664814E3,2.5585493E3,1.660024E3,3.772634E2,4.930973E2,2.2194766E2,1.3548087E2,6.4896014E2,9.602731E2,2.0058428E3,1.5435307E2,1.0658765E3,9.024948E2,1.7650386E3,3.888271E1,9.14478E1,4.4528122E2,1.4832976E2,1.2583787E2,3.1479285E2,7.8470404E2,4.0482285E1,2.9625021E1,5.0850513E1,1.839632E1,2.7325122E2,4.2768993E1,3.1292303E2,3.1860916E2,9.584431E1,5.7105023E2,1.4343787E2,6.794766E2,3.642379E1,5.5193516E1,1.4783405E2,4.2680475E2,4.7174274E1,6.5728966E1,4.2364643E1,1.4174457E2,9.446343E1,1.2571823E1,5.254924E3,9.270021E2,1.1796411E3,1.2346556E3,9.68491E2,1.0700023E3,2.1024641E2,7.07422E1,1.8003506E3,2.2127568E3,7.587406E2,2.3605695E2,9.8167114E2,9.639887E1,3.1154335E1,2.755792E1],"tree_param":{"num_deleted":"0","num_feature":"9","num_nodes":"121","size_leaf_vector":"1"}},{"base_weights":[-6.6150483E-3,4.2643833E-1,-3.2431427E-1,6.596328E-1,2.3135869E-1,-5.238895E-1,1.1435742E-2,5.4771286E-1,8.8327724E-1,1.24932736E-1,5.822876E-1,-2.5934252E-1,-6.054074E-1,-1.382982E-1,2.2369131E-1,6.8458664E-1,3.7928706E-1,1.068513E0,8.247648E-1,5.4671603E-1,7.265878E-2,5.228658E-1,1.0270559E0,-1.5290634E-1,-5.7944083E-1,-3.5961992E-1,-6.64462E-1,-1.8279761E-1,2.5826773E-1,1.1817171E-1,4.7477064E-1,5.127022E-1,7.4584675E-1,6.3678473E-1,2.5550184E-1,4.2228818E-2,1.038819E0,9.300749E-1,7.152142E-1,1.034382E0,4.7312307E-1,4.338548E-1,7.8477515E-3,7.707649E-1,4.3286896E-1,1.2981231E0,6.5867144E-1,-2.0431648E-1,2.8331378E-1,-6.0110986E-1,3.4336925E-2,1.09148264E-1,-4.2049935E-1,-5.657855E-1,-8.5920453E-1,-2.3792568E-1,1.5962137E-1,7.947487E-1,1.7007595E-1,1.2065926E-2,4.1735563E-1,3.8387254E-1,7.685107E-1,2.4962775E-2,1.1227979E-2,2.2228517E-2,1.650423E-2,2.387633E-2,1.3735176E-2,1.1560451E-2,4.374774E-3,3.177524E-2,2.4153203E-2,2.9822495E-2,2.119292E-2,2.172198E-2,1.4599538E-2,2.9927768E-2,1.7642753E-2,2.0317022E-2,8.942582E-3,1.6713643E-2,7.251057E-3,-3.4009987E-3,3.7709298E-3,2.1323225E-2,7.197423E-3,1.3783869E-2,6.861594E-3,3.8106434E-2,2.7232967E-2,-1.1839734E-2,2.23173E-2,-6.539689E-3,1.8003111E-3,1.7681392E-2,3.7704161E-3,-2.0683713E-2,-9.409466E-3,2.1175072E-2,-5.6519117E-3,-6.107647E-3,-1.5012094E-2,-9.999134E-3,-1.5102118E-2,-1.7728552E-2,-2.3635663E-2,8.6512165E-3,-6.436168E-3,1.4342875E-2,2.4472424E-4,2.5138866E-2,-2.7601868E-3,2.426266E-3,1.9618006E-2,5.9816777E-3,-1.8804669E-3,1.55969225E-2,2.3559784E-3,1.3370608E-2,4.8406823E-3,2.3611195E-2,-6.0877497E-3],"categories":[0,2,4,7,8,0,1,4,6,9,0,1,2,3,4,5,6,8,0,2,3,4,5,6,8,9,0,2,3,5,6,7,8,0,4,9,0,1,4,5,6,7,8,0,1,6,8,9],"categories_nodes":[18,22,28,33,40,43,56,61],"categories_segments":[0,5,10,18,26,33,36,43],"categories_sizes":[5,5,8,8,7,3,7,5],"default_left":[0,0,0,0,0,0,0,0,0,0,0,0,0,0,0,0,0,0,1,0,0,0,1,0,0,0,0,0,1,0,0,0,0,1,0,0,0,0,0,0,1,0,0,1,0,0,0,0,0,0,0,0,0,0,0,0,1,0,0,0,0,1,0,0,0,0,0,0,0,0,0,0,0,0,0,0,0,0,0,0,0,0,0,0,0,0,0,0,0,0,0,0,0,0,0,0,0,0,0,0,0,0,0,0,0,0,0,0,0,0,0,0,0,0,0,0,0,0,0,0,0,0,0],"id":4,"left_children":[1,3,5,7,9,11,13,15,17,19,21,23,25,27,29,31,33,35,37,39,41,43,45,47,49,51,53,55,57,59,61,63,65,67,69,-1,71,73,75,77,79,81,83,85,87,89,91,93,95,97,-1,99,101,103,105,107,109,111,113,115,117,119,121,-1,-1,-1,-1,-1,-1,-1,-1,-1,-1,-1,-1,-1,-1,-1,-1,-1,-1,-1,-1,-1,-1,-1,-1,-1,-1,-1,-1,-1,-1,-1,-1,-1,-1,-1,-1,-1,-1,-1,-1,-1,-1,-1,-1,-1,-1,-1,-1,-1,-1,-1,-1,-1,-1,-1,-1,-1,-1,-1,-1],"loss_changes":[5.588213E3,7.816467E2,1.5701226E3,1.955188E2,3.4935318E2,3.1665674E2,2.776209E2,1.19983154E2,2.7713623E1,1.5817542E2,5.7077393E1,1.1775168E2,1.6273975E2,9.0343765E1,9.556656E1,2.9925293E1,7.4339325E1,1.0830627E1,2.2400757E1,2.7947952E1,1.4947995E2,4.2505066E1,2.4969696E1,5.8268616E1,3.6453644E1,6.2222717E1,1.7359448E2,8.694705E1,2.4127205E1,8.0673965E1,2.818483E1,2.238298E1,2.5341797E1,2.0306824E1,2.6161835E1,0E0,8.995361E0,2.0610962E1,1.9311523E1,5.0779114E0,2.6521774E1,3.263521E1,1.1259522E2,2.0889587E1,2.6599243E1,6.1755066E0,2.9621735E1,3.7730583E1,1.5143818E1,4.3474182E1,0E0,6.2502476E1,6.1444336E1,4.0328247E1,4.003711E1,4.8244675E1,3.965657E1,1.4404564E1,1.9645561E1,3.7673023E1,4.4795547E1,2.352681E1,4.6258057E1,0E0,0E0,0E0,0E0,0E0,0E0,0E0,0E0,0E0,0E0,0E0,0E0,0E0,0E0,0E0,0E0,0E0,0E0,0E0,0E0,0E0,0E0,0E0,0E0,0E0,0E0,0E0,0E0,0E0,0E0,0E0,0E0,0E0,0E0,0E0,0E0,0E0,0E0,0E0,0E0,0E0,0E0,0E0,0E0,0E0,0E0,0E0,0E0,0E0,0E0,0E0,0E0,0E0,0E0,0E0,0E0,0E0,0E0,0E0,0E0],"parents":[2147483647,0,0,1,1,2,2,3,3,4,4,5,5,6,6,7,7,8,8,9,9,10,10,11,11,12,12,13,13,14,14,15,15,16,16,17,17,18,18,19,19,20,20,21,21,22,22,23,23,24,24,25,25,26,26,27,27,28,28,29,29,30,30,31,31,32,32,33,33,34,34,36,36,37,37,38,38,39,39,40,40,41,41,42,42,43,43,44,44,45,45,46,46,47,47,48,48,49,49,51,51,52,52,53,53,54,54,55,55,56,56,57,57,58,58,59,59,60,60,61,61,62,62],"right_children":[2,4,6,8,10,12,14,16,18,20,22,24,26,28,30,32,34,36,38,40,42,44,46,48,50,52,54,56,58,60,62,64,66,68,70,-1,72,74,76,78,80,82,84,86,88,90,92,94,96,98,-1,100,102,104,106,108,110,112,114,116,118,120,122,-1,-1,-1,-1,-1,-1,-1,-1,-1,-1,-1,-1,-1,-1,-1,-1,-1,-1,-1,-1,-1,-1,-1,-1,-1,-1,-1,-1,-1,-1,-1,-1,-1,-1,-1,-1,-1,-1,-1,-1,-1,-1,-1,-1,-1,-1,-1,-1,-1,-1,-1,-1,-1,-1,-1,-1,-1,-1,-1,-1],"split_conditions":[4.0500012E-1,2.1641587E-1,4.075463E-1,5.5490375E-1,5.803378E-1,2.3990874E-1,5.490217E-1,1.3042304E-1,1.9026962E-1,1.7425556E-1,7.8934455E-1,7.326729E-1,1.7424251E-1,5.647891E-1,6.4968896E-1,1.6862151E-1,4.240963E-1,4.4841487E-2,1E-45,3.1330213E-1,1.9879091E-1,2.0430066E-1,1E-45,7.1706957E-1,6.1638165E-1,1.593265E-1,6.1078006E-1,5.518244E-1,1E-45,4.0911844E-1,7.358314E-1,2.1239556E-1,5.2310094E-2,1E-45,3.190067E-1,4.2228818E-2,5.2310094E-2,1.6949064E-1,9.776975E-2,1.3193797E-1,1E-45,2.9446748E-1,3.2510915E-1,1E-45,3.583597E-1,3.0529562E-1,4.601796E-2,3.454503E-1,4.6564183E-1,1.6561285E-1,3.4336925E-2,1.7493564E-1,6.124469E-1,3.2531473E-1,3.4185728E-1,4.2293012E-1,1E-45,3.5399532E-1,6.745351E-1,5.006651E-1,2.668158E-1,1E-45,3.3646232E-1,2.4962775E-2,1.1227979E-2,2.2228517E-2,1.650423E-2,2.387633E-2,1.3735176E-2,1.1560451E-2,4.374774E-3,3.177524E-2,2.4153203E-2,2.9822495E-2,2.119292E-2,2.172198E-2,1.4599538E-2,2.9927768E-2,1.7642753E-2,2.0317022E-2,8.942582E-3,1.6713643E-2,7.251057E-3,-3.4009987E-3,3.7709298E-3,2.1323225E-2,7.197423E-3,1.3783869E-2,6.861594E-3,3.8106434E-2,2.7232967E-2,-1.1839734E-2,2.23173E-2,-6.539689E-3,1.8003111E-3,1.7681392E-2,3.7704161E-3,-2.0683713E-2,-9.409466E-3,2.1175072E-2,-5.6519117E-3,-6.107647E-3,-1.5012094E-2,-9.999134E-3,-1.5102118E-2,-1.7728552E-2,-2.3635663E-2,8.6512165E-3,-6.436168E-3,1.4342875E-2,2.4472424E-4,2.5138866E-2,-2.7601868E-3,2.426266E-3,1.9618006E-2,5.9816777E-3,-1.8804669E-3,1.55969225E-2,2.3559784E-3,1.3370608E-2,4.8406823E-3,2.3611195E-2,-6.0877497E-3],"split_indices":[2,2,1,1,1,4,1,2,0,4,1,2,0,3,1,1,4,4,7,0,0,4,7,3,3,3,2,0,7,3,1,4,2,7,0,0,2,4,2,4,7,2,1,7,0,2,3,1,2,1,0,1,2,0,0,2,7,4,3,2,0,7,3,0,0,0,0,0,0,0,0,0,0,0,0,0,0,0,0,0,0,0,0,0,0,0,0,0,0,0,0,0,0,0,0,0,0,0,0,0,0,0,0,0,0,0,0,0,0,0,0,0,0,0,0,0,0,0,0,0,0,0,0],"split_type":[0,0,0,0,0,0,0,0,0,0,0,0,0,0,0,0,0,0,1,0,0,0,1,0,0,0,0,0,1,0,0,0,0,1,0,0,0,0,0,0,1,0,0,1,0,0,0,0,0,0,0,0,0,0,0,0,1,0,0,0,0,1,0,0,0,0,0,0,0,0,0,0,0,0,0,0,0,0,0,0,0,0,0,0,0,0,0,0,0,0,0,0,0,0,0,0,0,0,0,0,0,0,0,0,0,0,0,0,0,0,0,0,0,0,0,0,0,0,0,0,0,0,0],"sum_hessian":[4.0617867E4,1.7188045E4,2.3429822E4,7.8284756E3,9.359569E3,1.4695459E4,8.734362E3,5.2183945E3,2.610081E3,7.1822744E3,2.1772952E3,3.4624863E3,1.1232973E4,5.1206646E3,3.613698E3,2.8778508E3,2.3405437E3,6.252499E2,1.9848312E3,7.9134064E2,6.3909336E3,1.9213174E3,2.5597766E2,2.5991814E3,8.6330475E2,2.1770652E3,9.055908E3,4.604712E3,5.159527E2,2.545231E3,1.0684668E3,7.5749005E2,2.1203608E3,7.5906665E2,1.581477E3,2.7681772E1,5.975681E2,1.01054224E3,9.742889E2,1.0319616E2,6.881445E2,9.7158295E2,5.4193506E3,5.1081537E2,1.4105021E3,1.4697227E2,1.0900539E2,2.3257651E3,2.7341626E2,8.540283E2,9.276419E0,2.4968506E2,1.9273801E3,6.011481E3,3.044427E3,3.9669158E3,6.377961E2,7.234526E1,4.436074E2,1.8796246E3,6.6560645E2,8.1677136E2,2.516955E2,8.36642E1,6.738258E2,7.5854095E2,1.3618198E3,1.5695287E2,6.0211383E2,4.351202E2,1.1463568E3,1.3154095E2,4.6602716E2,2.269735E2,7.835687E2,4.35835E2,5.384539E2,6.7330574E1,3.5865585E1,1.7041978E2,5.177247E2,3.6294672E2,6.086362E2,2.7008972E3,2.7184536E3,4.3262338E2,7.819199E1,7.951438E2,6.153583E2,6.76823E1,7.9289986E1,1.870833E1,9.029705E1,1.9204506E3,4.0531467E2,6.387995E1,2.095363E2,4.1938525E2,4.346431E2,7.813561E1,1.7154944E2,9.858319E2,9.4154816E2,1.2102482E3,4.8012324E3,1.1659521E3,1.878475E3,1.3540663E2,3.831509E3,1.6804836E2,4.6974774E2,5.868736E1,1.3657907E1,3.9748175E2,4.6125645E1,5.222463E2,1.3573783E3,4.0295892E2,2.626475E2,4.5008075E2,3.666906E2,2.1387561E2,3.7819893E1],"tree_param":{"num_deleted":"0","num_feature":"9","num_nodes":"123","size_leaf_vector":"1"}},{"base_weights":[7.3627173E-3,7.1203333E-1,-9.6887535E-1,8.322157E-1,-5.4008175E-2,-1.112888E0,-6.300441E-1,9.55729E-1,5.4663956E-1,-2.2585511E-1,1.116747E-1,-1.1534281E0,-8.490978E-1,-7.3326665E-1,-3.4643424E-1,8.661054E-1,1.0521044E0,4.907806E-1,8.074013E-1,-3.0102473E-1,-7.710214E-2,5.0881352E-2,5.080106E-1,-9.855774E-1,-1.2032696E0,-9.027889E-1,-3.6100775E-1,-7.7919793E-1,-3.1715184E-1,-2.7946177E-1,-5.770089E-1,8.4706384E-1,1.0415161E0,1.210591E0,1.028895E0,4.1783068E-1,5.6132334E-1,7.362569E-1,1.0424459E0,-3.2997236E-1,4.251369E-1,5.3596348E-2,-2.0762335E-1,2.3735963E-1,2.6845634E-3,5.4891604E-1,-1.599001E-2,-1.0870466E0,-7.5773084E-1,-1.2332188E0,-1.00898E0,-1.0455705E0,-7.4372995E-1,1.5267363E-1,-5.5429035E-1,-4.285172E-1,-8.0179334E-1,1.1866851E-1,-4.8734716E-1,-3.012439E-1,1.311377E-1,-1.128131E-1,-7.047758E-1,2.0572007E-2,2.5849778E-2,8.5332915E-3,2.6155332E-2,2.9331692E-2,3.535565E-2,2.4074523E-2,2.6928546E-2,1.31162675E-2,7.087493E-3,1.3053762E-2,1.8345268E-2,2.0639421E-2,1.377137E-2,2.8169777E-2,2.1760622E-2,-7.420377E-3,-2.1050017E-2,3.7016258E-2,3.3811645E-3,-8.865998E-3,2.768471E-3,4.9928227E-3,-8.006751E-3,1.2058496E-2,1.1750571E-3,-1.879922E-3,5.719017E-3,1.758738E-2,5.5915276E-3,-1.6771471E-2,-2.8210653E-2,-8.1818085E-3,-1.98165E-2,-3.186277E-2,-2.7016627E-2,-3.6142092E-2,-2.3902696E-2,-2.6485683E-2,1.0894029E-2,-2.049022E-2,-6.474512E-3,-1.2416375E-2,1.3558443E-2,1.4976789E-2,-1.5871186E-2,7.7381183E-4,-1.3016301E-2,-2.1947257E-2,-1.6493289E-2,6.1720806E-5,2.4743352E-2,-1.6689694E-2,-4.3289075E-3,-8.43423E-3,-2.2618752E-3,1.3360122E-2,-8.702604E-3,9.3769364E-4,-1.82866E-2,-1.9107355E-2,6.6324403E-3],"categories":[3,4,5,8,9,1,3,4,5,7,8,1,2,3,4,5,8,9,0,2,3,5,6,0,2,6,8,0,2,4,7,9,0,1,2,3,4,6,0,1,5,6,9,0,1,2,3,4,5,7,8,9,1,2,3,4,6,8,9,0,1,2,4],"categories_nodes":[20,28,30,35,37,38,43,45,54,55,60],"categories_segments":[0,5,11,18,23,27,32,38,43,52,59],"categories_sizes":[5,6,7,5,4,5,6,5,9,7,4],"default_left":[0,0,0,0,0,0,0,0,0,0,0,0,0,0,0,0,0,0,0,0,1,0,0,0,0,0,0,0,1,0,1,0,0,0,0,1,0,1,1,0,0,0,0,1,0,1,0,0,0,0,0,0,0,0,1,1,0,0,0,0,1,0,0,0,0,0,0,0,0,0,0,0,0,0,0,0,0,0,0,0,0,0,0,0,0,0,0,0,0,0,0,0,0,0,0,0,0,0,0,0,0,0,0,0,0,0,0,0,0,0,0,0,0,0,0,0,0,0,0,0,0,0,0,0,0],"id":5,"left_children":[1,3,5,7,9,11,13,15,17,19,21,23,25,27,29,31,33,35,37,39,41,43,45,47,49,51,53,55,57,59,61,63,65,67,69,71,73,75,77,79,81,83,85,87,89,91,-1,93,95,97,99,101,103,105,107,109,111,113,115,117,119,121,123,-1,-1,-1,-1,-1,-1,-1,-1,-1,-1,-1,-1,-1,-1,-1,-1,-1,-1,-1,-1,-1,-1,-1,-1,-1,-1,-1,-1,-1,-1,-1,-1,-1,-1,-1,-1,-1,-1,-1,-1,-1,-1,-1,-1,-1,-1,-1,-1,-1,-1,-1,-1,-1,-1,-1,-1,-1,-1,-1,-1,-1,-1],"loss_changes":[2.7981771E4,2.1751455E3,8.3153516E2,7.198262E2,9.124032E1,1.2734668E2,1.4858618E2,1.2253711E2,8.94259E1,1.748114E1,3.911218E1,8.608887E1,4.1420288E1,7.093445E1,2.0717545E1,2.4100098E1,2.4571777E1,2.5846313E1,1.7635315E1,2.1918045E1,9.077808E0,1.263809E1,1.0155853E1,5.4367188E1,4.583203E1,3.2077515E1,1.58708935E1,2.6233032E1,2.765158E1,9.472496E0,1.7829124E1,2.5245117E1,4.522705E0,5.020996E0,1.8996094E1,3.6101013E1,1.626007E1,1.3831848E1,3.178894E0,1.609507E1,1.1704914E1,6.159837E0,1.2443476E1,1.34412E1,2.004212E1,1.0427818E1,0E0,3.125293E1,1.18594055E1,4.772754E1,2.2132812E1,2.1523499E1,2.5957489E1,1.1010195E1,1.1210831E1,9.023464E0,3.4722046E1,1.0274281E1,1.5132038E1,7.826065E0,1.0290464E1,6.41177E0,1.4798599E1,0E0,0E0,0E0,0E0,0E0,0E0,0E0,0E0,0E0,0E0,0E0,0E0,0E0,0E0,0E0,0E0,0E0,0E0,0E0,0E0,0E0,0E0,0E0,0E0,0E0,0E0,0E0,0E0,0E0,0E0,0E0,0E0,0E0,0E0,0E0,0E0,0E0,0E0,0E0,0E0,0E0,0E0,0E0,0E0,0E0,0E0,0E0,0E0,0E0,0E0,0E0,0E0,0E0,0E0,0E0,0E0,0E0,0E0,0E0,0E0,0E0,0E0],"parents":[2147483647,0,0,1,1,2,2,3,3,4,4,5,5,6,6,7,7,8,8,9,9,10,10,11,11,12,12,13,13,14,14,15,15,16,16,17,17,18,18,19,19,20,20,21,21,22,22,23,23,24,24,25,25,26,26,27,27,28,28,29,29,30,30,31,31,32,32,33,33,34,34,35,35,36,36,37,37,38,38,39,39,40,40,41,41,42,42,43,43,44,44,45,45,47,47,48,48,49,49,50,50,51,51,52,52,53,53,54,54,55,55,56,56,57,57,58,58,59,59,60,60,61,61,62,62],"right_children":[2,4,6,8,10,12,14,16,18,20,22,24,26,28,30,32,34,36,38,40,42,44,46,48,50,52,54,56,58,60,62,64,66,68,70,72,74,76,78,80,82,84,86,88,90,92,-1,94,96,98,100,102,104,106,108,110,112,114,116,118,120,122,124,-1,-1,-1,-1,-1,-1,-1,-1,-1,-1,-1,-1,-1,-1,-1,-1,-1,-1,-1,-1,-1,-1,-1,-1,-1,-1,-1,-1,-1,-1,-1,-1,-1,-1,-1,-1,-1,-1,-1,-1,-1,-1,-1,-1,-1,-1,-1,-1,-1,-1,-1,-1,-1,-1,-1,-1,-1,-1,-1,-1,-1,-1],"split_conditions":[3E0,2E0,4.4920653E-1,1E0,3.762969E-1,6.430497E-1,6.1230993E-1,4.3127418E-1,5.952805E-1,5.567361E-1,6.7455363E-1,2.2014622E-1,8.075572E-1,5.9399146E-1,1E1,7.077121E-1,8.7606214E-2,3.2752734E-1,7.358314E-1,8.075572E-1,1E-45,1.69734E-1,5.886441E-1,3.1681684E-1,6.365146E-1,1.904578E-1,1.5429147E-1,7.5610474E-2,1E-45,8.149819E-1,1E-45,7.175186E-1,1.0503537E-2,7.673018E-1,5.6025E-1,1E-45,5.9511876E-1,1E-45,1E-45,5.3621745E-1,4.5188468E-2,4.1655138E-2,5.886441E-1,1E-45,5.541318E-1,1E-45,-1.599001E-2,2.9845078E-2,1.7759018E-1,3.454503E-1,2.3267351E-2,6.889654E-1,5.0451344E-1,5E0,1E-45,1E-45,4.8227018E-1,5.863282E-1,5.41312E-1,5.3621745E-1,1E-45,5.0171113E-1,5.4959553E-1,2.0572007E-2,2.5849778E-2,8.5332915E-3,2.6155332E-2,2.9331692E-2,3.535565E-2,2.4074523E-2,2.6928546E-2,1.31162675E-2,7.087493E-3,1.3053762E-2,1.8345268E-2,2.0639421E-2,1.377137E-2,2.8169777E-2,2.1760622E-2,-7.420377E-3,-2.1050017E-2,3.7016258E-2,3.3811645E-3,-8.865998E-3,2.768471E-3,4.9928227E-3,-8.006751E-3,1.2058496E-2,1.1750571E-3,-1.879922E-3,5.719017E-3,1.758738E-2,5.5915276E-3,-1.6771471E-2,-2.8210653E-2,-8.1818085E-3,-1.98165E-2,-3.186277E-2,-2.7016627E-2,-3.6142092E-2,-2.3902696E-2,-2.6485683E-2,1.0894029E-2,-2.049022E-2,-6.474512E-3,-1.2416375E-2,1.3558443E-2,1.4976789E-2,-1.5871186E-2,7.7381183E-4,-1.3016301E-2,-2.1947257E-2,-1.6493289E-2,6.1720806E-5,2.4743352E-2,-1.6689694E-2,-4.3289075E-3,-8.43423E-3,-2.2618752E-3,1.3360122E-2,-8.702604E-3,9.3769364E-4,-1.82866E-2,-1.9107355E-2,6.6324403E-3],"split_indices":[5,5,1,5,1,0,1,1,1,4,1,0,0,0,5,0,0,1,1,0,7,0,4,1,4,1,4,4,7,1,7,4,4,1,1,7,4,7,7,4,1,1,4,7,0,7,0,0,4,1,1,4,4,5,7,7,4,1,1,4,7,0,0,0,0,0,0,0,0,0,0,0,0,0,0,0,0,0,0,0,0,0,0,0,0,0,0,0,0,0,0,0,0,0,0,0,0,0,0,0,0,0,0,0,0,0,0,0,0,0,0,0,0,0,0,0,0,0,0,0,0,0,0,0,0],"split_type":[0,0,0,0,0,0,0,0,0,0,0,0,0,0,0,0,0,0,0,0,1,0,0,0,0,0,0,0,1,0,1,0,0,0,0,1,0,1,1,0,0,0,0,1,0,1,0,0,0,0,0,0,0,0,1,1,0,0,0,0,1,0,0,0,0,0,0,0,0,0,0,0,0,0,0,0,0,0,0,0,0,0,0,0,0,0,0,0,0,0,0,0,0,0,0,0,0,0,0,0,0,0,0,0,0,0,0,0,0,0,0,0,0,0,0,0,0,0,0,0,0,0,0,0,0],"sum_hessian":[4.0675598E4,2.362375E4,1.7051848E4,2.0420418E4,3.2033313E3,1.196533E4,5.0865176E3,1.4254279E4,6.166139E3,1.5732765E3,1.6300548E3,1.0370382E4,1.5949486E3,3.7284436E3,1.3580741E3,7.3875605E3,6.866719E3,5.07928E3,1.0868595E3,1.0438134E3,5.2946313E2,1.4139395E3,2.161153E2,2.3758047E3,7.9945767E3,1.4363281E3,1.5862048E2,3.3571516E3,3.712919E2,1.0534231E3,3.0465106E2,6.66578E3,7.2178076E2,8.753564E2,5.991363E3,2.4991606E3,2.5801191E3,8.353601E2,2.5149939E2,1.0041987E3,3.961463E1,2.6344122E2,2.6602188E2,2.891242E2,1.1248153E3,2.0895506E2,7.1602287E0,1.6428131E3,7.329916E2,6.9254E3,1.0691771E3,7.558476E2,6.8048047E2,4.2954807E1,1.1566568E2,2.0403181E2,3.1531199E3,1.03794914E2,2.67497E2,1.00103705E3,5.238605E1,6.625886E1,2.383922E2,6.0334243E3,6.323551E2,1.0408488E1,7.113723E2,7.62457E2,1.1289944E2,2.7967795E3,3.1945833E3,1.3698823E3,1.1292782E3,2.1372559E3,4.428633E2,5.517817E2,2.8357846E2,1.6256279E2,8.893659E1,9.4664545E2,5.7553345E1,8.235606E0,3.1379026E1,3.1852888E1,2.3158833E2,5.7581528E1,2.0844035E2,1.2497343E2,1.6415079E2,8.3571454E2,2.8910077E2,1.3985374E2,6.9101326E1,1.6817355E2,1.4746395E3,6.1447975E1,6.7154364E2,5.2348237E3,1.6905759E3,1.04109955E2,9.6506714E2,7.464806E2,9.36701E0,5.8346686E2,9.70136E1,1.5857901E1,2.7096905E1,7.556757E0,1.08108925E2,3.432435E1,1.6970747E2,1.9956328E3,1.157487E3,9.1956604E1,1.1838309E1,1.6809753E2,9.9399475E1,8.4745056E2,1.5358649E2,2.8737984E1,2.3648067E1,5.299529E1,1.3263571E1,2.2410725E2,1.4284941E1],"tree_param":{"num_deleted":"0","num_feature":"9","num_nodes":"125","size_leaf_vector":"1"}},{"base_weights":[-4.418924E-3,6.847106E-1,-9.5584893E-1,8.0389094E-1,-5.980099E-2,-5.314891E-1,-1.1521385E0,9.234456E-1,5.269001E-1,2.767206E-1,-2.1051614E-1,-2.345134E-1,-6.808349E-1,-1.2719225E0,-8.8493794E-1,1.0804704E0,8.4774107E-1,7.084192E-1,3.7743273E-1,5.7885945E-1,1.9253823E-1,-3.2715502E-1,1.1531144E-1,1.8611155E-2,-3.3590278E-1,-7.692302E-1,-3.9452004E-1,-8.9392316E-1,-1.3092619E0,-9.329074E-1,-4.292101E-1,1.1995138E0,1.0342968E0,7.597242E-1,9.5423955E-1,9.1369027E-1,6.4730334E-1,2.4911943E-1,4.8245946E-1,3.351702E-1,7.659367E-1,1.5249899E-1,5.00344E-1,-4.2220965E-2,-3.90958E-1,-2.160518E-2,1.3978647E-1,7.25493E-1,-3.463244E-2,6.1381137E-4,-4.142238E-1,-5.9524864E-1,-8.612019E-1,-2.0860292E-1,-5.231301E-1,-5.6759685E-1,-9.3429875E-1,-1.2165502E0,-1.4229444E0,-7.4499303E-1,-1.0141225E0,-5.103444E-1,5.0689995E-1,2.8791774E-2,3.3016466E-2,2.9198729E-2,2.4978384E-2,2.2000723E-2,1.8238967E-2,2.641304E-2,2.2444807E-2,2.4698865E-2,1.4928114E-2,1.4713878E-2,1.989855E-2,1.0082988E-2,4.637338E-3,1.1497998E-2,2.7730003E-2,1.5271695E-2,-9.654828E-3,2.6117222E-2,1.2183672E-2,7.47374E-3,6.517569E-5,2.0261757E-2,-5.817261E-3,6.825408E-4,-1.9165197E-2,-1.14027755E-2,-7.877976E-3,1.5243596E-3,9.545602E-3,2.498533E-2,1.072811E-3,-1.3427981E-2,5.5040687E-4,-1.2192542E-3,1.9255014E-2,4.9178423E-3,-1.1002052E-2,-9.992459E-3,-1.769976E-2,-2.9994959E-2,-2.0632682E-2,-2.6159965E-2,-4.4538667E-3,-3.356056E-3,-1.4430831E-2,-3.3500846E-3,-2.4859922E-2,-1.9757971E-2,-2.6240489E-2,-2.606661E-2,-3.111897E-2,-3.7673514E-2,-3.3217065E-2,-1.3905736E-2,-2.113477E-2,-2.1386126E-2,-2.7296754E-2,-2.8597119E-3,-1.7068189E-2,-1.9674383E-3,2.4854863E-2],"categories":[4,5,6,7,8,0,2,7,0,2,3,5,6,7,8,0,5,6,8,0,2,4,5,8,9,0,1,5,6,9,3,1,2,3,4,5,6,7,8,1,3,5,7,8,1,3,7,2,4,5,8,0,1,2,3,4,6,7],"categories_nodes":[26,35,37,39,41,42,43,50,51,55,56,62],"categories_segments":[0,5,8,15,19,25,30,31,39,44,47,51],"categories_sizes":[5,3,7,4,6,5,1,8,5,3,4,7],"default_left":[0,0,0,0,0,0,0,0,0,0,0,0,0,0,0,0,0,0,0,0,0,0,0,0,0,0,1,0,0,0,0,0,0,0,0,1,0,1,0,1,0,1,1,1,0,0,0,0,0,0,1,1,0,0,0,1,1,0,0,0,0,0,1,0,0,0,0,0,0,0,0,0,0,0,0,0,0,0,0,0,0,0,0,0,0,0,0,0,0,0,0,0,0,0,0,0,0,0,0,0,0,0,0,0,0,0,0,0,0,0,0,0,0,0,0,0,0,0,0,0,0,0,0,0,0],"id":6,"left_children":[1,3,5,7,9,11,13,15,17,19,21,23,25,27,29,31,33,35,37,39,41,43,45,47,49,51,53,55,57,59,61,63,65,67,69,71,73,75,77,79,81,83,85,87,89,-1,91,93,95,97,99,101,103,105,107,109,111,113,115,117,119,121,123,-1,-1,-1,-1,-1,-1,-1,-1,-1,-1,-1,-1,-1,-1,-1,-1,-1,-1,-1,-1,-1,-1,-1,-1,-1,-1,-1,-1,-1,-1,-1,-1,-1,-1,-1,-1,-1,-1,-1,-1,-1,-1,-1,-1,-1,-1,-1,-1,-1,-1,-1,-1,-1,-1,-1,-1,-1,-1,-1,-1,-1,-1],"loss_changes":[2.6576814E4,2.0860605E3,1.417793E3,6.7061816E2,1.6448714E2,2.3858875E2,3.7194043E2,1.6766602E2,1.6545288E2,2.5275177E1,8.5222244E1,4.6359634E1,9.032837E1,1.127666E2,7.838379E1,2.4614746E1,8.900928E1,3.413269E1,4.4954193E1,9.597473E0,9.481857E0,2.988324E1,1.3996988E1,1.9577505E1,3.4068253E1,4.3353638E1,2.0012543E1,9.07782E0,7.627051E1,4.9224854E1,2.6125488E1,6.1538086E0,1.33396E1,1.6852783E1,2.3569336E1,1.5186951E1,1.7706177E1,1.4615578E1,2.315976E1,1.9276201E1,9.138802E0,1.5329926E1,2.0813671E1,1.5579092E1,6.5177765E0,0E0,1.0900441E1,6.6259995E0,1.38653E1,9.518545E0,1.7989304E1,2.0984192E1,1.9021118E1,8.285052E0,1.0818573E1,1.4710121E1,1.028717E1,2.2612305E1,2.5445312E1,1.8731628E1,2.8607666E1,2.1770409E1,8.101419E0,0E0,0E0,0E0,0E0,0E0,0E0,0E0,0E0,0E0,0E0,0E0,0E0,0E0,0E0,0E0,0E0,0E0,0E0,0E0,0E0,0E0,0E0,0E0,0E0,0E0,0E0,0E0,0E0,0E0,0E0,0E0,0E0,0E0,0E0,0E0,0E0,0E0,0E0,0E0,0E0,0E0,0E0,0E0,0E0,0E0,0E0,0E0,0E0,0E0,0E0,0E0,0E0,0E0,0E0,0E0,0E0,0E0,0E0,0E0,0E0,0E0,0E0],"parents":[2147483647,0,0,1,1,2,2,3,3,4,4,5,5,6,6,7,7,8,8,9,9,10,10,11,11,12,12,13,13,14,14,15,15,16,16,17,17,18,18,19,19,20,20,21,21,22,22,23,23,24,24,25,25,26,26,27,27,28,28,29,29,30,30,31,31,32,32,33,33,34,34,35,35,36,36,37,37,38,38,39,39,40,40,41,41,42,42,43,43,44,44,46,46,47,47,48,48,49,49,50,50,51,51,52,52,53,53,54,54,55,55,56,56,57,57,58,58,59,59,60,60,61,61,62,62],"right_children":[2,4,6,8,10,12,14,16,18,20,22,24,26,28,30,32,34,36,38,40,42,44,46,48,50,52,54,56,58,60,62,64,66,68,70,72,74,76,78,80,82,84,86,88,90,-1,92,94,96,98,100,102,104,106,108,110,112,114,116,118,120,122,124,-1,-1,-1,-1,-1,-1,-1,-1,-1,-1,-1,-1,-1,-1,-1,-1,-1,-1,-1,-1,-1,-1,-1,-1,-1,-1,-1,-1,-1,-1,-1,-1,-1,-1,-1,-1,-1,-1,-1,-1,-1,-1,-1,-1,-1,-1,-1,-1,-1,-1,-1,-1,-1,-1,-1,-1,-1,-1,-1,-1,-1,-1],"split_conditions":[3E0,2E0,4.0500012E-1,1E0,3.0122703E-1,2.023891E-1,4.1007343E-1,2.6447767E-1,3.8543868E-1,7.4695624E-2,5.11936E-1,3.7117344E-1,5.461577E-1,1.1353792E-1,6.452894E-1,2.8681663E-1,4.2542574E-1,9.776975E-2,3.2752734E-1,4.0529427E-1,6.7455363E-1,4.0500012E-1,3.1317103E-1,5.46952E-2,5.7973877E-2,4.334826E-1,1E-45,5.066472E-1,5.99578E-1,5.006651E-1,6.557205E-1,6.952332E-1,4.612572E-2,3.6658463E-1,2.0861071E-1,1E-45,5.803378E-1,1E-45,7.358314E-1,1E-45,5.438139E-1,1E-45,1E-45,1E-45,2.7300224E-1,-2.160518E-2,6.539457E-1,1.6461161E-1,1.0678682E-1,6.804238E-1,1E-45,1E-45,4.82822E-2,5.5195963E-1,1.393615E-1,1E-45,1E-45,3.04072E-1,1.8315804E-1,3.4625596E-1,2.5294524E-1,4.7827756E-1,1E-45,2.8791774E-2,3.3016466E-2,2.9198729E-2,2.4978384E-2,2.2000723E-2,1.8238967E-2,2.641304E-2,2.2444807E-2,2.4698865E-2,1.4928114E-2,1.4713878E-2,1.989855E-2,1.0082988E-2,4.637338E-3,1.1497998E-2,2.7730003E-2,1.5271695E-2,-9.654828E-3,2.6117222E-2,1.2183672E-2,7.47374E-3,6.517569E-5,2.0261757E-2,-5.817261E-3,6.825408E-4,-1.9165197E-2,-1.14027755E-2,-7.877976E-3,1.5243596E-3,9.545602E-3,2.498533E-2,1.072811E-3,-1.3427981E-2,5.5040687E-4,-1.2192542E-3,1.9255014E-2,4.9178423E-3,-1.1002052E-2,-9.992459E-3,-1.769976E-2,-2.9994959E-2,-2.0632682E-2,-2.6159965E-2,-4.4538667E-3,-3.356056E-3,-1.4430831E-2,-3.3500846E-3,-2.4859922E-2,-1.9757971E-2,-2.6240489E-2,-2.606661E-2,-3.111897E-2,-3.7673514E-2,-3.3217065E-2,-1.3905736E-2,-2.113477E-2,-2.1386126E-2,-2.7296754E-2,-2.8597119E-3,-1.7068189E-2,-1.9674383E-3,2.4854863E-2],"split_indices":[5,5,2,5,2,2,1,2,2,2,1,4,1,4,1,4,1,2,1,1,1,2,2,4,2,4,7,2,2,2,2,1,2,2,4,7,1,7,1,7,1,7,7,7,1,0,1,2,1,1,7,7,1,1,4,7,7,4,1,4,4,2,7,0,0,0,0,0,0,0,0,0,0,0,0,0,0,0,0,0,0,0,0,0,0,0,0,0,0,0,0,0,0,0,0,0,0,0,0,0,0,0,0,0,0,0,0,0,0,0,0,0,0,0,0,0,0,0,0,0,0,0,0,0,0],"split_type":[0,0,0,0,0,0,0,0,0,0,0,0,0,0,0,0,0,0,0,0,0,0,0,0,0,0,1,0,0,0,0,0,0,0,0,1,0,1,0,1,0,1,1,1,0,0,0,0,0,0,1,1,0,0,0,1,1,0,0,0,0,0,1,0,0,0,0,0,0,0,0,0,0,0,0,0,0,0,0,0,0,0,0,0,0,0,0,0,0,0,0,0,0,0,0,0,0,0,0,0,0,0,0,0,0,0,0,0,0,0,0,0,0,0,0,0,0,0,0,0,0,0,0,0,0],"sum_hessian":[4.053436E4,2.350742E4,1.702694E4,2.026398E4,3.2434382E3,5.3855215E3,1.1641419E4,1.4153807E4,6.1101743E3,1.00267444E3,2.2407637E3,1.8027527E3,3.5827688E3,8.0372056E3,3.6042134E3,4.602723E3,9.551083E3,2.7583157E3,3.351859E3,2.1770073E2,7.8497375E2,1.6507346E3,5.900291E2,5.147611E2,1.2879916E3,2.736769E3,8.4599963E2,7.233168E2,7.3138887E3,3.2603623E3,3.438511E2,1.2843848E3,3.3183381E3,5.2309023E3,4.320181E3,6.316463E2,2.1266694E3,1.5099689E3,1.8418899E3,9.525507E1,1.22445656E2,6.954927E2,8.948108E1,3.028548E2,1.3478799E3,1.4011737E1,5.7601733E2,3.6418015E1,4.783431E2,2.4247243E2,1.045519E3,9.4759314E2,1.789176E3,3.4688596E2,4.991137E2,8.048066E1,6.428361E2,4.030095E3,3.2837937E3,9.850442E2,2.275318E3,3.1672406E2,2.7127031E1,9.66898E2,3.1748682E2,5.90644E2,2.727694E3,9.184773E2,4.312425E3,1.4083635E3,2.9118176E3,5.0367084E2,1.2797546E2,1.5579229E3,5.6874646E2,4.313023E2,1.0786666E3,1.78508E3,5.680998E1,6.90552E1,2.6199879E1,5.9830933E1,6.2614727E1,3.4905426E2,3.464384E2,6.2947327E1,2.6533754E1,2.760688E2,2.6786024E1,7.047562E2,6.4312366E2,4.3667523E2,1.393421E2,2.5542004E1,1.087601E1,4.8816963E1,4.2952615E2,2.2752028E2,1.4952141E1,4.5290627E1,1.00022845E3,3.5639438E2,5.911988E2,1.5067442E2,1.6385016E3,1.139506E1,3.3549088E2,6.448404E1,4.3462967E2,4.0535202E1,3.9945454E1,2.983417E2,3.444944E2,6.8178015E2,3.348315E3,1.6074634E3,1.6763303E3,3.5538608E2,6.296581E2,7.9690546E2,1.4784126E3,9.797012E1,2.1875394E2,1.2122003E1,1.5005029E1],"tree_param":{"num_deleted":"0","num_feature":"9","num_nodes":"125","size_leaf_vector":"1"}},{"base_weights":[-1.8517234E-3,6.686604E-1,-9.2666054E-1,7.828507E-1,-5.4683603E-2,-1.0422127E0,-5.2414036E-1,8.963633E-1,5.2178305E-1,-2.0968941E-1,9.001396E-2,-1.1243559E0,-8.42951E-1,-6.15012E-1,-2.4070133E-1,8.3086723E-1,1.0575799E0,4.331812E-1,6.612865E-1,-3.6687848E-1,-1.4727484E-2,4.0384885E-2,4.7685438E-1,-1.1820813E0,-8.178708E-1,-8.8340664E-1,-3.6099577E-1,-6.866182E-1,-1.6330928E-1,-2.9266006E-1,3.9490038E-1,7.989303E-1,9.1247356E-1,1.041313E0,3.1879574E-2,3.8098618E-1,5.795421E-1,6.152465E-1,8.94505E-1,-4.228922E-1,4.4168415E-3,-1.0037587E-1,2.8951967E-1,-3.3059042E-2,1.909682E-1,5.818801E-1,1.3356687E-1,-1.2719426E0,-1.0021353E0,-9.0451944E-1,-5.268934E-1,-9.597223E-1,-6.552302E-1,-8.713512E-1,-2.5584674E-1,-7.4214214E-1,-1.1247705E-1,3.8329625E-1,-2.4689367E-1,-3.3779654E-1,1.6356762E-1,2.2006235E-1,2.5725512E-2,1.876768E-2,2.1084003E-2,2.1741081E-2,2.6314236E-2,2.4584021E-2,2.7969986E-2,8.542336E-3,1.4721903E-2,1.4034827E-2,3.7280925E-2,1.5105882E-2,3.7502732E-2,2.2834636E-2,5.3880685E-3,-9.971106E-3,-3.6978334E-2,-4.306275E-3,2.0071665E-2,-7.1841907E-3,1.5612592E-3,3.9353976E-3,2.1546E-2,-2.8131753E-3,4.683428E-3,3.9477632E-3,1.7621443E-2,7.832618E-3,1.8499564E-2,7.5026746E-3,-1.7503126E-2,-3.2535836E-2,-1.7436437E-2,-2.6039407E-2,-1.3040066E-2,-2.514134E-2,-1.6792484E-2,-1.4498087E-2,1.3100333E-2,-2.5921986E-2,-1.6676687E-2,-1.8900596E-2,-1.0603046E-2,-6.066761E-3,-2.9811185E-2,-1.1832538E-2,-2.534683E-4,-2.0683348E-2,-1.4584563E-2,-9.284043E-3,2.5475228E-3,5.2770055E-3,2.8310055E-2,-8.478051E-3,7.0255504E-5,-9.11967E-3,1.25488145E-2,-2.6247E-3,1.4742605E-2,1.6988924E-2,2.1416987E-3],"categories":[],"categories_nodes":[],"categories_segments":[],"categories_sizes":[],"default_left":[0,0,0,0,0,0,0,0,0,0,0,0,0,0,0,0,0,0,0,0,0,0,0,0,0,0,0,0,0,0,0,0,0,0,0,0,0,0,0,0,0,0,0,0,0,0,0,0,0,0,0,0,0,0,0,0,0,0,0,0,0,0,0,0,0,0,0,0,0,0,0,0,0,0,0,0,0,0,0,0,0,0,0,0,0,0,0,0,0,0,0,0,0,0,0,0,0,0,0,0,0,0,0,0,0,0,0,0,0,0,0,0,0,0,0,0,0,0,0,0,0,0,0],"id":7,"left_children":[1,3,5,7,9,11,13,15,17,19,21,23,25,27,29,31,33,35,37,39,41,43,45,47,49,51,53,55,57,59,61,63,65,67,-1,69,71,73,75,77,79,81,83,85,87,89,91,93,95,97,99,101,103,105,107,109,111,113,115,117,119,121,-1,-1,-1,-1,-1,-1,-1,-1,-1,-1,-1,-1,-1,-1,-1,-1,-1,-1,-1,-1,-1,-1,-1,-1,-1,-1,-1,-1,-1,-1,-1,-1,-1,-1,-1,-1,-1,-1,-1,-1,-1,-1,-1,-1,-1,-1,-1,-1,-1,-1,-1,-1,-1,-1,-1,-1,-1,-1,-1,-1,-1],"loss_changes":[2.5116639E4,1.9396523E3,7.9135547E2,6.005381E2,7.18304E1,2.1589062E2,9.756238E1,1.486582E2,7.564197E1,4.7280098E1,3.161406E1,1.650664E2,7.492871E1,9.273816E1,3.0448624E1,2.5677246E1,1.4146484E1,2.8439392E1,2.5164185E1,1.7910995E1,1.7955276E1,1.6272144E1,6.5477905E0,1.26711914E2,3.7013123E1,6.154419E1,1.5746529E1,7.883862E1,1.796277E1,1.7628113E1,7.3740435E0,1.5148926E1,1.5241455E1,1.613623E1,0E0,2.1714905E1,1.3354034E1,1.3706177E1,5.8682556E0,1.6919128E1,1.6063805E1,1.6664606E1,1.1136631E1,1.741933E1,7.7996616E0,5.855152E0,6.1608725E0,1.0690723E2,5.5394775E1,2.7323242E1,2.0125343E1,6.2970215E1,2.1035553E1,9.973293E0,1.3300219E1,3.1037476E1,1.2362829E1,6.291165E0,8.121382E0,1.8796356E1,8.948414E0,3.1731973E0,0E0,0E0,0E0,0E0,0E0,0E0,0E0,0E0,0E0,0E0,0E0,0E0,0E0,0E0,0E0,0E0,0E0,0E0,0E0,0E0,0E0,0E0,0E0,0E0,0E0,0E0,0E0,0E0,0E0,0E0,0E0,0E0,0E0,0E0,0E0,0E0,0E0,0E0,0E0,0E0,0E0,0E0,0E0,0E0,0E0,0E0,0E0,0E0,0E0,0E0,0E0,0E0,0E0,0E0,0E0,0E0,0E0,0E0,0E0,0E0,0E0],"parents":[2147483647,0,0,1,1,2,2,3,3,4,4,5,5,6,6,7,7,8,8,9,9,10,10,11,11,12,12,13,13,14,14,15,15,16,16,17,17,18,18,19,19,20,20,21,21,22,22,23,23,24,24,25,25,26,26,27,27,28,28,29,29,30,30,31,31,32,32,33,33,35,35,36,36,37,37,38,38,39,39,40,40,41,41,42,42,43,43,44,44,45,45,46,46,47,47,48,48,49,49,50,50,51,51,52,52,53,53,54,54,55,55,56,56,57,57,58,58,59,59,60,60,61,61],"right_children":[2,4,6,8,10,12,14,16,18,20,22,24,26,28,30,32,34,36,38,40,42,44,46,48,50,52,54,56,58,60,62,64,66,68,-1,70,72,74,76,78,80,82,84,86,88,90,92,94,96,98,100,102,104,106,108,110,112,114,116,118,120,122,-1,-1,-1,-1,-1,-1,-1,-1,-1,-1,-1,-1,-1,-1,-1,-1,-1,-1,-1,-1,-1,-1,-1,-1,-1,-1,-1,-1,-1,-1,-1,-1,-1,-1,-1,-1,-1,-1,-1,-1,-1,-1,-1,-1,-1,-1,-1,-1,-1,-1,-1,-1,-1,-1,-1,-1,-1,-1,-1,-1,-1],"split_conditions":[3E0,2E0,5.015277E-1,1E0,3.705226E-1,5.2676153E-1,6.452894E-1,5.490217E-1,4.6724737E-1,4.9398342E-1,6.8735147E-1,6.430497E-1,7.529504E-1,5.421165E-1,5.2676153E-1,5.699123E-1,8.149819E-1,5.8666754E-1,6.952332E-1,7.2524256E-1,5.548518E-1,4.8241618E-1,3.8028333E-1,3.4891647E-1,3.1942233E-1,3.454503E-1,6.012172E-2,6.118498E-1,7.5610474E-2,5.541318E-1,6.2801933E-1,3.454503E-1,4.2345828E-1,4.0911844E-1,3.1879574E-2,6.7828846E-1,7.0586973E-1,7.6722777E-1,5.5638224E-1,4.8427838E-1,4.6598524E-1,4.0972102E-1,6.6568184E-1,5.5305123E-1,5.838519E-1,1.5501846E-1,3.5418636E-1,7.7438235E-1,6.633365E-1,7.454567E-1,5.378968E-1,5.268796E-1,6.2234646E-1,3.1213537E-2,7.968347E-1,4.7818238E-1,6.430497E-1,8E0,9E0,8.559417E-1,1.8367909E-1,6.6914904E-1,2.5725512E-2,1.876768E-2,2.1084003E-2,2.1741081E-2,2.6314236E-2,2.4584021E-2,2.7969986E-2,8.542336E-3,1.4721903E-2,1.4034827E-2,3.7280925E-2,1.5105882E-2,3.7502732E-2,2.2834636E-2,5.3880685E-3,-9.971106E-3,-3.6978334E-2,-4.306275E-3,2.0071665E-2,-7.1841907E-3,1.5612592E-3,3.9353976E-3,2.1546E-2,-2.8131753E-3,4.683428E-3,3.9477632E-3,1.7621443E-2,7.832618E-3,1.8499564E-2,7.5026746E-3,-1.7503126E-2,-3.2535836E-2,-1.7436437E-2,-2.6039407E-2,-1.3040066E-2,-2.514134E-2,-1.6792484E-2,-1.4498087E-2,1.3100333E-2,-2.5921986E-2,-1.6676687E-2,-1.8900596E-2,-1.0603046E-2,-6.066761E-3,-2.9811185E-2,-1.1832538E-2,-2.534683E-4,-2.0683348E-2,-1.4584563E-2,-9.284043E-3,2.5475228E-3,5.2770055E-3,2.8310055E-2,-8.478051E-3,7.0255504E-5,-9.11967E-3,1.25488145E-2,-2.6247E-3,1.4742605E-2,1.6988924E-2,2.1416987E-3],"split_indices":[5,5,1,5,1,3,1,1,1,3,1,0,3,3,3,3,1,3,1,4,4,3,0,1,1,1,1,0,4,0,3,1,1,3,0,0,4,3,0,3,0,0,3,4,0,0,3,4,4,0,4,0,3,1,3,4,0,5,5,1,3,1,0,0,0,0,0,0,0,0,0,0,0,0,0,0,0,0,0,0,0,0,0,0,0,0,0,0,0,0,0,0,0,0,0,0,0,0,0,0,0,0,0,0,0,0,0,0,0,0,0,0,0,0,0,0,0,0,0,0,0,0,0],"split_type":[0,0,0,0,0,0,0,0,0,0,0,0,0,0,0,0,0,0,0,0,0,0,0,0,0,0,0,0,0,0,0,0,0,0,0,0,0,0,0,0,0,0,0,0,0,0,0,0,0,0,0,0,0,0,0,0,0,0,0,0,0,0,0,0,0,0,0,0,0,0,0,0,0,0,0,0,0,0,0,0,0,0,0,0,0,0,0,0,0,0,0,0,0,0,0,0,0,0,0,0,0,0,0,0,0,0,0,0,0,0,0,0,0,0,0,0,0,0,0,0,0,0,0],"sum_hessian":[4.050429E4,2.348019E4,1.70241E4,2.0279223E4,3.2009663E3,1.3226404E4,3.797695E3,1.4132993E4,6.1462305E3,1.5464039E3,1.6545624E3,9.364439E3,3.8619648E3,2.8749229E3,9.227722E2,1.0051449E4,4.0815435E3,3.7602258E3,2.3860046E3,8.5529565E2,6.911082E2,1.4671241E3,1.874382E2,7.8793623E3,1.4850778E3,3.5623142E3,2.9965076E2,2.4809668E3,3.9395602E2,8.534766E2,6.929561E1,7.226999E3,2.82445E3,3.806356E3,2.751875E2,2.7733042E3,9.869217E2,1.9937616E3,3.9224298E2,7.438599E2,1.11435745E2,5.400554E2,1.5105281E2,9.848595E2,4.8226468E2,1.4286171E2,4.4576485E1,5.2538926E3,2.6254695E3,1.1435013E3,3.4157648E2,2.6684592E3,8.938549E2,5.0683243E1,2.4896751E2,2.261724E3,2.1924272E2,5.177578E1,3.4218024E2,7.7722925E2,7.6247375E1,5.479779E1,1.4497818E1,3.7711992E3,3.4558E3,2.2332087E3,5.9124115E2,2.3219778E3,1.4843782E3,2.354422E3,4.1888208E2,9.709966E2,1.5925132E1,1.976266E3,1.7495613E1,3.7876666E2,1.3476322E1,7.2901807E2,1.484187E1,9.09674E1,2.046834E1,2.514442E2,2.8861124E2,1.2346627E2,2.7586538E1,7.24311E2,2.6054852E2,4.5449698E2,2.7767683E1,5.459193E1,8.826978E1,3.7430187E1,7.1462984E0,4.943175E3,3.1071786E2,2.4011912E3,2.2427837E2,7.812506E2,3.6225067E2,3.2465176E2,1.6924707E1,2.0772854E3,5.911739E2,6.1292755E2,2.8092743E2,1.7682077E1,3.3001163E1,1.3076959E2,1.18197914E2,1.4372542E3,8.244699E2,9.9665146E1,1.1957757E2,4.2545116E1,9.230663E0,2.4952983E2,9.2650406E1,7.519068E2,2.532247E1,4.645223E1,2.9795147E1,1.1788361E1,4.300943E1],"tree_param":{"num_deleted":"0","num_feature":"9","num_nodes":"123","size_leaf_vector":"1"}},{"base_weights":[2.0873213E-4,7.686439E-1,-7.733709E-1,8.813593E-1,5.086806E-1,-6.496813E-2,-9.0640783E-1,1.0490788E0,7.9922074E-1,6.7462194E-1,3.5574135E-1,2.894248E-1,-2.059512E-1,-5.0952303E-1,-1.101559E0,9.918087E-1,1.146388E0,7.078939E-1,8.95687E-1,8.628782E-1,6.454773E-1,3.3807406E-1,9.2585635E-1,5.6739897E-1,2.1900505E-1,-3.0477554E-1,5.9281938E-2,-2.3480305E-1,-6.590955E-1,-1.2266842E0,-8.141385E-1,1.1097296E0,9.679553E-1,1.2966763E0,1.1017442E0,8.2693315E-1,6.8496823E-1,9.787097E-1,8.3080447E-1,9.172374E-1,4.196391E-1,6.9008917E-1,5.299982E-1,3.8333595E-1,1.7326625E-1,1.5249369E0,6.7995656E-1,5.136017E-2,7.314272E-1,1.9721112E-1,9.0782875E-1,-1.623794E-1,-3.9057693E-1,-5.9740893E-3,2.6392722E-1,-3.587373E-1,2.451548E-2,-7.3962796E-1,-3.201352E-1,-1.0196624E0,-1.2827413E0,-5.528847E-1,-8.646654E-1,2.8925832E-2,2.435434E-2,2.5890727E-2,2.293834E-2,3.3774856E-2,2.9386684E-2,2.8732209E-2,2.6526466E-2,2.4231503E-2,1.887953E-2,1.9187525E-2,1.6267857E-2,2.5251642E-2,1.9350216E-2,2.3879217E-2,1.9240657E-2,2.448852E-2,1.7024266E-2,2.8098965E-2,3.831372E-3,1.2975808E-2,1.8075332E-2,1.2583805E-2,3.8729858E-2,9.304419E-3,3.0643178E-2,9.812146E-3,7.4417656E-4,4.259999E-2,2.334206E-2,4.58645E-3,2.4123326E-2,1.17157865E-2,-1.3806482E-2,2.0063248E-2,6.249595E-3,5.847196E-3,-3.8856678E-3,3.5598658E-3,3.156332E-2,-6.1154796E-4,-7.9089925E-3,-7.2411816E-3,-1.3704637E-2,-1.776431E-3,7.845184E-3,1.7244732E-2,-1.351745E-3,9.470455E-4,-1.0632592E-2,3.8318776E-3,-7.1597104E-3,-6.3519916E-3,-1.9148871E-2,-4.582487E-3,-1.9083153E-2,-1.6034294E-2,-2.6094483E-2,-2.8620869E-2,-3.425261E-2,-9.125495E-3,-1.762492E-2,-1.4865697E-2,-2.2918085E-2],"categories":[0,1,7,11,12,0,1,2,3,4,5,7,9,10,11,12,0,3,5,6,10,11,12,0,4,6,8,10,11,12,0,1,4,5,6,7,8,10,11,12,0,4,9,10,11,12,0,1,3,4,6,8,9,10,11,12,0,1,2,3,6,7,8,10,0,1,2,8,11,12,4,6,7,8,5,6,8,11,4,10,12,1,3,4,5,9,11,12],"categories_nodes":[19,22,31,33,35,37,44,47,48,51,52,58,61],"categories_segments":[0,5,16,23,30,40,46,56,64,70,74,78,81],"categories_sizes":[5,11,7,7,10,6,10,8,6,4,4,3,7],"default_left":[0,0,0,0,0,0,0,0,0,0,0,0,0,0,0,0,0,0,0,1,0,0,1,0,0,0,0,0,0,0,0,1,0,1,0,1,0,1,0,0,0,0,0,0,1,0,0,1,1,0,0,1,1,0,0,0,0,0,1,0,0,1,0,0,0,0,0,0,0,0,0,0,0,0,0,0,0,0,0,0,0,0,0,0,0,0,0,0,0,0,0,0,0,0,0,0,0,0,0,0,0,0,0,0,0,0,0,0,0,0,0,0,0,0,0,0,0,0,0,0,0,0,0,0,0,0,0],"id":8,"left_children":[1,3,5,7,9,11,13,15,17,19,21,23,25,27,29,31,33,35,37,39,41,43,45,47,49,51,53,55,57,59,61,63,65,67,69,71,73,75,77,79,81,83,85,87,89,91,93,95,97,99,101,103,105,107,109,111,113,115,117,119,121,123,125,-1,-1,-1,-1,-1,-1,-1,-1,-1,-1,-1,-1,-1,-1,-1,-1,-1,-1,-1,-1,-1,-1,-1,-1,-1,-1,-1,-1,-1,-1,-1,-1,-1,-1,-1,-1,-1,-1,-1,-1,-1,-1,-1,-1,-1,-1,-1,-1,-1,-1,-1,-1,-1,-1,-1,-1,-1,-1,-1,-1,-1,-1,-1,-1],"loss_changes":[2.4108367E4,5.957539E2,1.9043945E3,1.9494434E2,1.5588416E2,1.5964679E2,1.3173301E3,2.533789E1,8.345117E1,1.5734741E1,3.1890747E1,1.7558998E1,6.001358E1,2.302107E2,4.0956152E2,7.629883E0,1.0841797E1,1.2904297E1,2.4399902E1,9.096252E0,1.2805176E1,2.301886E1,1.34385605E1,1.5248688E1,1.0572586E1,2.0202347E1,8.35492E0,6.366829E1,9.8800415E1,9.150098E1,4.524756E1,2.7525635E0,7.574951E0,1.9846802E0,1.8334961E0,7.366455E0,1.0584717E1,1.4251099E1,1.8753296E1,4.971466E0,7.859018E0,1.094165E1,1.7121857E1,1.8838226E1,2.1148693E1,2.2073479E0,9.463882E0,1.1318308E1,4.668701E0,9.435921E0,5.612549E0,1.3359602E1,1.6320099E1,9.789881E0,2.081252E1,3.658751E1,2.5802473E1,4.239856E1,4.2112877E1,1.8050781E1,7.701074E1,1.5939026E1,4.330835E1,0E0,0E0,0E0,0E0,0E0,0E0,0E0,0E0,0E0,0E0,0E0,0E0,0E0,0E0,0E0,0E0,0E0,0E0,0E0,0E0,0E0,0E0,0E0,0E0,0E0,0E0,0E0,0E0,0E0,0E0,0E0,0E0,0E0,0E0,0E0,0E0,0E0,0E0,0E0,0E0,0E0,0E0,0E0,0E0,0E0,0E0,0E0,0E0,0E0,0E0,0E0,0E0,0E0,0E0,0E0,0E0,0E0,0E0,0E0,0E0,0E0,0E0,0E0,0E0],"parents":[2147483647,0,0,1,1,2,2,3,3,4,4,5,5,6,6,7,7,8,8,9,9,10,10,11,11,12,12,13,13,14,14,15,15,16,16,17,17,18,18,19,19,20,20,21,21,22,22,23,23,24,24,25,25,26,26,27,27,28,28,29,29,30,30,31,31,32,32,33,33,34,34,35,35,36,36,37,37,38,38,39,39,40,40,41,41,42,42,43,43,44,44,45,45,46,46,47,47,48,48,49,49,50,50,51,51,52,52,53,53,54,54,55,55,56,56,57,57,58,58,59,59,60,60,61,61,62,62],"right_children":[2,4,6,8,10,12,14,16,18,20,22,24,26,28,30,32,34,36,38,40,42,44,46,48,50,52,54,56,58,60,62,64,66,68,70,72,74,76,78,80,82,84,86,88,90,92,94,96,98,100,102,104,106,108,110,112,114,116,118,120,122,124,126,-1,-1,-1,-1,-1,-1,-1,-1,-1,-1,-1,-1,-1,-1,-1,-1,-1,-1,-1,-1,-1,-1,-1,-1,-1,-1,-1,-1,-1,-1,-1,-1,-1,-1,-1,-1,-1,-1,-1,-1,-1,-1,-1,-1,-1,-1,-1,-1,-1,-1,-1,-1,-1,-1,-1,-1,-1,-1,-1,-1,-1,-1,-1,-1],"split_conditions":[2E0,1E0,3E0,2.6447767E-1,4.0500012E-1,2.797695E-1,4.1253328E-1,5.573904E-1,4.0529427E-1,1.5067941E-1,6.952332E-1,6.386974E-2,5.0942034E-1,2.1641587E-1,4.1540587E-1,4.612572E-2,5.2310094E-2,3.6078438E-1,4.418065E-1,1E-45,3.0953008E-1,6.557205E-1,1E-45,2.4589771E-1,2.75269E-1,4.8253965E-1,6.539457E-1,5.186984E-1,5.666475E-1,2.3990874E-1,1.24858916E-1,1E-45,4.334826E-1,1E-45,2.8476351E-1,1E-45,2.3990874E-1,1E-45,1.7425556E-1,3.228057E-1,9.776975E-2,1.8315804E-1,8.149819E-1,6.5294546E-1,1E-45,5.348139E-1,4.908083E-1,1E-45,1E-45,2.554428E-1,4.023273E-1,1E-45,1E-45,5.311465E-1,1.9230986E-1,5.2310094E-2,1.6461161E-1,1.3193797E-1,1E-45,4.7463143E-1,5.565766E-1,1E-45,4.6356437E-1,2.8925832E-2,2.435434E-2,2.5890727E-2,2.293834E-2,3.3774856E-2,2.9386684E-2,2.8732209E-2,2.6526466E-2,2.4231503E-2,1.887953E-2,1.9187525E-2,1.6267857E-2,2.5251642E-2,1.9350216E-2,2.3879217E-2,1.9240657E-2,2.448852E-2,1.7024266E-2,2.8098965E-2,3.831372E-3,1.2975808E-2,1.8075332E-2,1.2583805E-2,3.8729858E-2,9.304419E-3,3.0643178E-2,9.812146E-3,7.4417656E-4,4.259999E-2,2.334206E-2,4.58645E-3,2.4123326E-2,1.17157865E-2,-1.3806482E-2,2.0063248E-2,6.249595E-3,5.847196E-3,-3.8856678E-3,3.5598658E-3,3.156332E-2,-6.1154796E-4,-7.9089925E-3,-7.2411816E-3,-1.3704637E-2,-1.776431E-3,7.845184E-3,1.7244732E-2,-1.351745E-3,9.470455E-4,-1.0632592E-2,3.8318776E-3,-7.1597104E-3,-6.3519916E-3,-1.9148871E-2,-4.582487E-3,-1.9083153E-2,-1.6034294E-2,-2.6094483E-2,-2.8620869E-2,-3.425261E-2,-9.125495E-3,-1.762492E-2,-1.4865697E-2,-2.2918085E-2],"split_indices":[5,5,5,2,2,2,2,1,1,4,1,2,1,2,1,2,2,2,2,6,2,2,6,1,2,2,1,1,1,4,4,6,4,6,4,6,4,6,4,2,2,1,1,2,6,2,2,6,6,2,4,6,6,4,4,2,2,4,6,2,2,6,2,0,0,0,0,0,0,0,0,0,0,0,0,0,0,0,0,0,0,0,0,0,0,0,0,0,0,0,0,0,0,0,0,0,0,0,0,0,0,0,0,0,0,0,0,0,0,0,0,0,0,0,0,0,0,0,0,0,0,0,0,0,0,0,0],"split_type":[0,0,0,0,0,0,0,0,0,0,0,0,0,0,0,0,0,0,0,1,0,0,1,0,0,0,0,0,0,0,0,1,0,1,0,1,0,1,0,0,0,0,0,0,1,0,0,1,1,0,0,1,1,0,0,0,0,0,1,0,0,1,0,0,0,0,0,0,0,0,0,0,0,0,0,0,0,0,0,0,0,0,0,0,0,0,0,0,0,0,0,0,0,0,0,0,0,0,0,0,0,0,0,0,0,0,0,0,0,0,0,0,0,0,0,0,0,0,0,0,0,0,0,0,0,0,0],"sum_hessian":[4.055599E4,2.0345834E4,2.0210152E4,1.4191481E4,6.1543535E3,3.195705E3,1.7014447E4,4.664046E3,9.527436E3,2.950748E3,3.2036052E3,9.08894E2,2.286811E3,5.608951E3,1.1405496E4,2.9381367E3,1.7259092E3,4.895755E3,4.63168E3,3.9413138E2,2.5566167E3,3.1078503E3,9.575495E1,1.828359E2,7.2605804E2,1.66685E3,6.199611E2,1.9779916E3,3.6309595E3,7.94544E3,3.4600564E3,4.9207706E2,2.4460598E3,3.9360553E2,1.3323037E3,7.884003E2,4.1073545E3,2.0296719E3,2.6020085E3,3.5046317E2,4.3668205E1,1.8422563E3,7.1436035E2,2.436811E3,6.7103937E2,2.748047E1,6.827448E1,4.4536854E1,1.3829906E2,7.042344E2,2.1823679E1,6.28038E2,1.0388119E3,4.6900543E2,1.5095567E2,1.3391146E3,6.3887695E2,2.9331821E3,6.977774E2,1.6942396E3,6.2512E3,5.617214E2,2.898335E3,3.4855984E2,1.4351721E2,9.4443225E2,1.5016274E3,2.5585648E2,1.3774905E2,5.300426E2,8.0226105E2,2.4800455E2,5.403958E2,1.0851958E3,3.0221587E3,1.7179255E3,3.1174634E2,7.997422E2,1.8022664E3,2.7106927E2,7.93939E1,1.1569314E1,3.209889E1,3.290832E2,1.5131732E3,6.982321E2,1.6128277E1,2.410639E3,2.617204E1,2.6310287E2,4.079365E2,2.0413141E1,7.06733E0,2.5573305E1,4.270118E1,2.661056E1,1.7926292E1,1.19072914E2,1.9226147E1,6.369139E2,6.732051E1,7.2677813E0,1.4555898E1,3.3400592E2,2.9403214E2,6.420567E2,3.9675522E2,3.9043054E2,7.85749E1,6.465089E1,8.630479E1,1.9685474E2,1.1422599E3,4.5227365E2,1.8660332E2,1.7200081E2,2.7611814E3,5.355605E2,1.6221692E2,1.2312841E2,1.5711112E3,2.5984092E3,3.652791E3,2.56651E2,3.050704E2,5.0713382E2,2.3912012E3],"tree_param":{"num_deleted":"0","num_feature":"9","num_nodes":"127","size_leaf_vector":"1"}},{"base_weights":[2.6735608E-3,3.9026287E-1,-2.7744526E-1,4.9037895E-1,-3.7958276E-1,-1.4656052E-1,-9.4182485E-1,7.3686266E-1,3.769561E-1,-4.988537E-2,-6.0458964E-1,1.1623748E-1,-2.5313652E-1,-2.8002974E-1,-1.0090925E0,9.359723E-1,6.725621E-1,7.111828E-1,3.144137E-1,3.6004287E-1,-2.088115E-1,1.15634464E-1,-6.8542224E-1,2.143675E-1,-2.2705072E-1,-1.1715588E-1,-4.021457E-1,1.0478352E-1,-6.967529E-1,-7.034672E-1,-1.0758032E0,1.0999762E0,8.247977E-1,1.203216E0,6.5104526E-1,9.650159E-1,6.438854E-1,5.213557E-1,2.1513814E-1,9.8142177E-1,1.7788367E-1,4.528041E-2,-4.0676424E-1,4.94607E-1,-3.206366E-1,-3.949224E-1,-7.834654E-1,4.6392703E-1,8.9635156E-2,3.5908215E-2,-3.4522343E-1,1.3032769E-1,-2.1151444E-1,-2.4319218E-1,-5.705781E-1,3.5156333E-1,-3.016103E-1,-8.5621643E-1,6.6558264E-2,-5.9478223E-1,-1.1648962E0,-8.504041E-1,-1.194242E0,2.9948005E-2,2.197741E-2,2.8039362E-2,1.8170102E-2,3.3121623E-2,1.1479149E-2,1.8620772E-2,1.3912937E-2,2.7505577E-2,1.4089687E-2,2.0193156E-2,1.27328625E-2,1.5912233E-2,9.751395E-3,8.5583255E-3,3.1211874E-3,2.8546557E-2,8.595125E-3,2.4290051E-2,1.1067844E-3,2.051669E-2,-5.858487E-5,3.1284757E-3,-1.3012262E-2,2.1758145E-2,2.228896E-3,9.210786E-3,-1.583822E-2,-5.285822E-3,-2.5557097E-2,-1.7383615E-2,-2.8315557E-2,1.6258722E-2,8.848843E-3,5.3732814E-3,-1.8557083E-3,7.6964223E-3,-5.972493E-3,5.9353267E-3,-9.984293E-3,8.119199E-3,5.10014E-4,-4.1985577E-3,-1.0562066E-2,2.2080906E-4,-8.535188E-3,-1.0938159E-2,-1.8825108E-2,3.475461E-2,6.4732805E-3,1.2186625E-2,-1.0908637E-2,-1.4841836E-2,-3.4424823E-2,2.7389143E-2,-6.6383514E-3,4.887725E-3,-1.726016E-2,-2.2202734E-2,-4.2570252E-2,-1.4547112E-2,-2.3976985E-2,-2.4099547E-2,-3.3241294E-2],"categories":[10,11,12,10,11,12,1,2,3,4,5,6,7,8,1,2,3,4,5,7,8,1,2,3,4,5,6,7,8,11,12,11,12,0,1,2,3,4,7,8,9,0,2,3,4,5,0,4,5,9,0,1,3,4,6,8,12,1,2,8],"categories_nodes":[1,2,6,9,10,13,21,32,34,35,47,57,60],"categories_segments":[0,3,6,14,21,29,31,33,41,46,50,56,57],"categories_sizes":[3,3,8,7,8,2,2,8,5,4,6,1,3],"default_left":[0,1,1,0,0,0,1,0,0,1,1,0,0,1,0,0,0,0,0,0,0,1,0,0,0,0,0,0,0,0,0,0,1,0,1,1,0,0,0,0,0,0,0,0,0,0,0,1,0,0,0,0,0,0,0,0,0,1,0,0,1,0,0,0,0,0,0,0,0,0,0,0,0,0,0,0,0,0,0,0,0,0,0,0,0,0,0,0,0,0,0,0,0,0,0,0,0,0,0,0,0,0,0,0,0,0,0,0,0,0,0,0,0,0,0,0,0,0,0,0,0,0,0,0,0,0,0],"id":9,"left_children":[1,3,5,7,9,11,13,15,17,19,21,23,25,27,29,31,33,35,37,39,41,43,45,47,49,51,53,55,57,59,61,63,65,67,69,71,73,75,77,79,81,83,85,87,89,91,93,95,97,99,101,103,105,107,109,111,113,115,117,119,121,123,125,-1,-1,-1,-1,-1,-1,-1,-1,-1,-1,-1,-1,-1,-1,-1,-1,-1,-1,-1,-1,-1,-1,-1,-1,-1,-1,-1,-1,-1,-1,-1,-1,-1,-1,-1,-1,-1,-1,-1,-1,-1,-1,-1,-1,-1,-1,-1,-1,-1,-1,-1,-1,-1,-1,-1,-1,-1,-1,-1,-1,-1,-1,-1,-1],"loss_changes":[4.3851265E3,1.3060244E3,2.0383489E3,4.1887964E2,1.4444357E2,5.4861694E2,1.7136987E2,6.0003906E1,2.1437671E2,5.1516964E1,6.7601715E1,1.9034625E2,2.82222E2,5.7329105E1,7.085547E1,2.0421387E1,4.0229614E1,2.7155151E1,1.7753363E2,2.4626461E1,2.881822E1,1.9322824E1,2.9319153E1,1.3664713E2,3.9104774E1,1.7020529E2,1.7775537E2,1.8566795E1,2.1104652E1,3.0975372E1,7.60874E1,9.800476E0,1.9072113E1,1.2636795E1,3.0321411E1,1.8445374E1,2.7969543E1,4.2592712E1,6.744687E1,4.7939606E0,1.7912586E1,9.497742E0,2.0023273E1,9.370324E0,1.183535E1,3.005508E1,2.2827087E1,2.974179E1,6.0861176E1,2.9342686E1,2.8442177E1,4.3187458E1,4.7884705E1,8.6235535E1,7.8263916E1,1.0542233E1,7.5131097E0,1.8870934E1,1.036917E1,4.0020676E1,1.6943268E1,2.936969E1,5.9551758E1,0E0,0E0,0E0,0E0,0E0,0E0,0E0,0E0,0E0,0E0,0E0,0E0,0E0,0E0,0E0,0E0,0E0,0E0,0E0,0E0,0E0,0E0,0E0,0E0,0E0,0E0,0E0,0E0,0E0,0E0,0E0,0E0,0E0,0E0,0E0,0E0,0E0,0E0,0E0,0E0,0E0,0E0,0E0,0E0,0E0,0E0,0E0,0E0,0E0,0E0,0E0,0E0,0E0,0E0,0E0,0E0,0E0,0E0,0E0,0E0,0E0,0E0,0E0,0E0],"parents":[2147483647,0,0,1,1,2,2,3,3,4,4,5,5,6,6,7,7,8,8,9,9,10,10,11,11,12,12,13,13,14,14,15,15,16,16,17,17,18,18,19,19,20,20,21,21,22,22,23,23,24,24,25,25,26,26,27,27,28,28,29,29,30,30,31,31,32,32,33,33,34,34,35,35,36,36,37,37,38,38,39,39,40,40,41,41,42,42,43,43,44,44,45,45,46,46,47,47,48,48,49,49,50,50,51,51,52,52,53,53,54,54,55,55,56,56,57,57,58,58,59,59,60,60,61,61,62,62],"right_children":[2,4,6,8,10,12,14,16,18,20,22,24,26,28,30,32,34,36,38,40,42,44,46,48,50,52,54,56,58,60,62,64,66,68,70,72,74,76,78,80,82,84,86,88,90,92,94,96,98,100,102,104,106,108,110,112,114,116,118,120,122,124,126,-1,-1,-1,-1,-1,-1,-1,-1,-1,-1,-1,-1,-1,-1,-1,-1,-1,-1,-1,-1,-1,-1,-1,-1,-1,-1,-1,-1,-1,-1,-1,-1,-1,-1,-1,-1,-1,-1,-1,-1,-1,-1,-1,-1,-1,-1,-1,-1,-1,-1,-1,-1,-1,-1,-1,-1,-1,-1,-1,-1,-1,-1,-1,-1],"split_conditions":[4.025493E-1,1E-45,1E-45,1.503276E-1,2.1641587E-1,2.3990874E-1,1E-45,2.668158E-1,1.8577579E-1,1E-45,1E-45,7.0205027E-1,5.5966663E-1,1E-45,1.6949064E-1,4.806014E-1,4.9569942E-2,3.1330213E-1,3.2240885E-1,2.5648263E-1,4.6951374E-1,1E-45,3.15848E-1,3.5013592E-1,1.69734E-1,2.5255623E-1,3.071392E-1,5.7427675E-1,5.5348235E-1,7.416536E-1,5.1846415E-1,1.0837958E-1,1E-45,7.529504E-1,1E-45,1E-45,2.797695E-1,2.9446748E-1,4.438193E-1,6.983505E-1,2.2877395E-1,8.1872255E-2,5.2310094E-2,4.7424632E-1,2.797695E-1,6.851793E-1,5.9511876E-1,1E-45,5.6673104E-1,4.0436184E-1,6.53063E-2,4.9525708E-1,5.9745646E-1,1.9321896E-1,6.4085245E-1,5.4284476E-2,6.2164903E-2,1E-45,1.4843953E-1,1.7741707E-1,1E-45,3.8946462E-1,2.7047753E-1,2.9948005E-2,2.197741E-2,2.8039362E-2,1.8170102E-2,3.3121623E-2,1.1479149E-2,1.8620772E-2,1.3912937E-2,2.7505577E-2,1.4089687E-2,2.0193156E-2,1.27328625E-2,1.5912233E-2,9.751395E-3,8.5583255E-3,3.1211874E-3,2.8546557E-2,8.595125E-3,2.4290051E-2,1.1067844E-3,2.051669E-2,-5.858487E-5,3.1284757E-3,-1.3012262E-2,2.1758145E-2,2.228896E-3,9.210786E-3,-1.583822E-2,-5.285822E-3,-2.5557097E-2,-1.7383615E-2,-2.8315557E-2,1.6258722E-2,8.848843E-3,5.3732814E-3,-1.8557083E-3,7.6964223E-3,-5.972493E-3,5.9353267E-3,-9.984293E-3,8.119199E-3,5.10014E-4,-4.1985577E-3,-1.0562066E-2,2.2080906E-4,-8.535188E-3,-1.0938159E-2,-1.8825108E-2,3.475461E-2,6.4732805E-3,1.2186625E-2,-1.0908637E-2,-1.4841836E-2,-3.4424823E-2,2.7389143E-2,-6.6383514E-3,4.887725E-3,-1.726016E-2,-2.2202734E-2,-4.2570252E-2,-1.4547112E-2,-2.3976985E-2,-2.4099547E-2,-3.3241294E-2],"split_indices":[2,6,6,2,2,4,7,0,4,7,7,2,2,6,4,4,4,0,0,3,4,6,0,0,0,0,0,2,3,2,2,2,7,3,7,7,2,2,4,0,0,3,2,4,2,4,4,7,2,3,3,4,0,3,2,0,0,6,0,0,7,4,0,0,0,0,0,0,0,0,0,0,0,0,0,0,0,0,0,0,0,0,0,0,0,0,0,0,0,0,0,0,0,0,0,0,0,0,0,0,0,0,0,0,0,0,0,0,0,0,0,0,0,0,0,0,0,0,0,0,0,0,0,0,0,0,0],"split_type":[0,1,1,0,0,0,1,0,0,1,1,0,0,1,0,0,0,0,0,0,0,1,0,0,0,0,0,0,0,0,0,0,1,0,1,1,0,0,0,0,0,0,0,0,0,0,0,1,0,0,0,0,0,0,0,0,0,1,0,0,1,0,0,0,0,0,0,0,0,0,0,0,0,0,0,0,0,0,0,0,0,0,0,0,0,0,0,0,0,0,0,0,0,0,0,0,0,0,0,0,0,0,0,0,0,0,0,0,0,0,0,0,0,0,0,0,0,0,0,0,0,0,0,0,0,0,0],"sum_hessian":[4.03891E4,1.6944584E4,2.3444518E4,1.4994928E4,1.9496554E3,1.958641E4,3.858108E3,4.7247236E3,1.0270204E4,7.913861E2,1.1582693E3,5.650503E3,1.3935906E4,3.5638467E2,3.5017234E3,1.1521472E3,3.5725762E3,1.6181052E3,8.6521E3,2.2057407E2,5.708121E2,1.1651218E2,1.0417571E3,4.3950303E3,1.2554725E3,7.287549E3,6.6483574E3,1.8493204E2,1.7145262E2,6.2823566E2,2.8734875E3,4.643219E2,6.8782526E2,1.3862994E2,3.4339463E3,3.3811368E2,1.2799916E3,2.8040154E3,5.848084E3,4.96137E1,1.7096037E2,2.4932419E2,3.2148785E2,6.2707035E1,5.3805145E1,2.6365726E2,7.7809985E2,1.4638346E3,2.9311958E3,3.8850772E2,8.669648E2,2.0107223E3,5.2768267E3,3.421349E3,3.2270083E3,1.1551112E2,6.942091E1,1.4213806E2,2.9314558E1,5.0903156E2,1.1920414E2,9.90729E2,1.8827587E3,3.129171E2,1.5140477E2,1.629631E2,5.248622E2,1.17861305E2,2.0768635E1,1.6645192E3,1.7694272E3,2.4939938E2,8.871429E1,5.62791E2,7.172006E2,1.4639725E3,1.3400428E3,2.3984448E3,3.449639E3,3.8962456E1,1.0651244E1,2.4136137E1,1.4682423E2,1.4689312E1,2.3463487E2,5.7161175E1,2.643267E2,3.1966438E1,3.0740595E1,1.6594223E1,3.7210922E1,2.050022E2,5.8655056E1,6.287861E2,1.4931377E2,5.309927E2,9.328419E2,1.657669E3,1.2735267E3,1.9567609E2,1.9283165E2,7.553723E1,7.9142755E2,7.2105426E2,1.289668E3,4.395991E3,8.808352E2,9.701252E2,2.451224E3,1.8953121E3,1.331696E3,8.997344E0,1.0651379E2,9.910113E0,5.9510803E1,9.566024E1,4.647783E1,7.344343E0,2.1970215E1,5.6270638E1,4.527609E2,7.993533E1,3.926881E1,2.9709692E2,6.936321E2,7.278974E2,1.1548613E3],"tree_param":{"num_deleted":"0","num_feature":"9","num_nodes":"127","size_leaf_vector":"1"}},{"base_weights":[2.0094374E-3,6.4258546E-1,-8.8536704E-1,7.505331E-1,-4.1956563E-2,-9.3386126E-1,-6.327317E-1,8.6109793E-1,4.958833E-1,-5.7830464E-2,4.4003338E-1,-6.622833E-1,-9.6267897E-1,-6.9952947E-1,-3.6199024E-1,9.3627495E-1,8.3512825E-1,4.7107294E-1,6.569184E-1,6.315711E-2,-1.03318155E-1,2.4859515E-1,1.1618857E0,-6.907122E-1,2.5001759E-2,-9.977856E-1,-8.120109E-1,-3.288945E-1,-7.3655087E-1,-1.8429206E-1,-5.720445E-1,1.0437404E0,9.041353E-1,8.8025576E-1,7.968135E-1,4.3680966E-1,5.9597945E-1,7.594284E-1,4.3887857E-1,2.9901183E-1,-4.1094437E-2,-2.532263E-1,-4.218824E-2,4.9516693E-1,-2.6240128E-1,3.7885293E-2,1.2128637E-2,-7.318745E-1,-3.8466015E-1,2.3645896E-2,-1.2732239E-1,-1.0274825E0,-7.937236E-1,-1.5224893E-1,-8.3451176E-1,-6.065236E-2,-6.585747E-1,-7.72346E-1,-4.6238598E-1,-2.4549098E-1,3.258111E-1,2.2638294E-1,-6.3644695E-1,2.8677307E-2,2.5111375E-2,2.6637822E-2,2.1903018E-2,2.3515623E-2,2.1256825E-2,2.115781E-2,1.9408323E-2,1.43587245E-2,9.754511E-3,1.7580442E-2,1.1461648E-2,4.33015E-2,1.836404E-2,6.841881E-3,1.55177675E-2,3.99211E-3,1.5889198E-2,-2.0414416E-3,1.0159357E-2,-4.6177413E-3,-1.6099667E-2,-2.6738273E-3,3.4116218E-3,1.652098E-2,-0E0,-2.3763906E-2,2.9769652E-3,-1.5574454E-2,-2.0926345E-2,-1.27581395E-2,1.7656105E-2,-9.595443E-3,1.2079962E-2,-1.9843834E-2,-2.6169432E-2,-1.4020785E-2,-2.2351667E-2,7.0845913E-3,-9.010718E-3,-2.1680059E-2,-1.0915823E-2,2.2589762E-3,-1.7300267E-2,-2.8661458E-2,-1.18305255E-2,-1.991819E-2,-8.694836E-3,-2.5821075E-2,-7.491816E-3,1.2174868E-2,-7.228089E-3,1.8349506E-2,-3.1322716E-3,1.847344E-2,-8.205117E-3,-1.0574954E-2,-2.2127723E-2],"categories":[0,3,6,7,0,1,2,3,4,5,6,0,4,5,6,0,1,2,4,5,6,8,0,2,4,5,6,7,8,9,0,3,6,7,8,5,9,1,2,5,8,1,3,4,5,7,9,5,6,7,8],"categories_nodes":[18,19,21,33,34,36,41,47,52,62],"categories_segments":[0,4,11,15,22,30,35,37,41,47],"categories_sizes":[4,7,4,7,8,5,2,4,6,4],"default_left":[0,0,0,0,0,0,0,0,0,0,0,0,0,0,0,0,0,0,1,1,0,1,0,0,0,0,0,0,0,0,0,0,0,1,1,0,1,0,0,0,0,1,0,0,0,0,0,1,0,0,0,0,1,0,0,0,0,0,0,0,0,0,1,0,0,0,0,0,0,0,0,0,0,0,0,0,0,0,0,0,0,0,0,0,0,0,0,0,0,0,0,0,0,0,0,0,0,0,0,0,0,0,0,0,0,0,0,0,0,0,0,0,0,0,0,0,0,0,0,0,0],"id":10,"left_children":[1,3,5,7,9,11,13,15,17,19,21,23,25,27,29,31,33,35,37,39,41,43,45,47,49,51,53,55,57,59,61,63,65,67,69,71,73,75,77,79,81,83,85,87,89,-1,-1,91,93,-1,95,97,99,101,103,105,107,109,111,113,115,117,119,-1,-1,-1,-1,-1,-1,-1,-1,-1,-1,-1,-1,-1,-1,-1,-1,-1,-1,-1,-1,-1,-1,-1,-1,-1,-1,-1,-1,-1,-1,-1,-1,-1,-1,-1,-1,-1,-1,-1,-1,-1,-1,-1,-1,-1,-1,-1,-1,-1,-1,-1,-1,-1,-1,-1,-1,-1,-1],"loss_changes":[2.2932445E4,1.7315703E3,2.0673828E2,5.6942773E2,2.4304716E1,1.10552734E2,4.8960938E1,2.7010742E1,2.414563E1,1.701764E1,1.3560099E1,2.6810669E1,6.7293945E1,2.965918E1,1.9937927E1,1.190918E1,1.7631836E1,2.2423462E1,1.7889862E1,2.0793144E1,2.0508902E1,1.019039E1,4.474783E0,1.6150635E1,7.817147E0,6.2475586E1,3.5716675E1,1.740185E1,1.9115479E1,9.137972E0,1.2812698E1,2.4515991E0,1.0435303E1,7.53125E0,4.590088E0,2.588678E1,1.6739197E1,1.0820099E1,7.6716805E0,1.1958384E1,1.0647225E1,1.7055511E1,1.869803E1,4.407076E0,7.0683355E0,0E0,0E0,1.2887695E1,2.1832815E1,0E0,7.2413154E0,5.0347656E1,3.1433716E1,7.406684E0,3.3869995E1,1.0784686E1,7.536667E0,2.063562E1,2.097268E1,8.63418E0,5.9337616E0,5.3231297E0,1.1835861E1,0E0,0E0,0E0,0E0,0E0,0E0,0E0,0E0,0E0,0E0,0E0,0E0,0E0,0E0,0E0,0E0,0E0,0E0,0E0,0E0,0E0,0E0,0E0,0E0,0E0,0E0,0E0,0E0,0E0,0E0,0E0,0E0,0E0,0E0,0E0,0E0,0E0,0E0,0E0,0E0,0E0,0E0,0E0,0E0,0E0,0E0,0E0,0E0,0E0,0E0,0E0,0E0,0E0,0E0,0E0,0E0,0E0,0E0],"parents":[2147483647,0,0,1,1,2,2,3,3,4,4,5,5,6,6,7,7,8,8,9,9,10,10,11,11,12,12,13,13,14,14,15,15,16,16,17,17,18,18,19,19,20,20,21,21,22,22,23,23,24,24,25,25,26,26,27,27,28,28,29,29,30,30,31,31,32,32,33,33,34,34,35,35,36,36,37,37,38,38,39,39,40,40,41,41,42,42,43,43,44,44,47,47,48,48,50,50,51,51,52,52,53,53,54,54,55,55,56,56,57,57,58,58,59,59,60,60,61,61,62,62],"right_children":[2,4,6,8,10,12,14,16,18,20,22,24,26,28,30,32,34,36,38,40,42,44,46,48,50,52,54,56,58,60,62,64,66,68,70,72,74,76,78,80,82,84,86,88,90,-1,-1,92,94,-1,96,98,100,102,104,106,108,110,112,114,116,118,120,-1,-1,-1,-1,-1,-1,-1,-1,-1,-1,-1,-1,-1,-1,-1,-1,-1,-1,-1,-1,-1,-1,-1,-1,-1,-1,-1,-1,-1,-1,-1,-1,-1,-1,-1,-1,-1,-1,-1,-1,-1,-1,-1,-1,-1,-1,-1,-1,-1,-1,-1,-1,-1,-1,-1,-1,-1,-1],"split_conditions":[3E0,2E0,5.837947E-1,1E0,7.529504E-1,1.2828578E-1,7.1706957E-1,2.197366E-1,6.348595E-1,2.4656005E-1,4.516886E-1,7.802583E-1,6.1038214E-1,8.5895315E-2,7E0,2.2320274E-1,3.5566083E-1,5.9511876E-1,1E-45,1E-45,4.0972102E-1,1E-45,7.815203E-1,5.3602254E-1,1.1470723E-1,6.430497E-1,2.9845078E-2,7E0,5.5638224E-1,8.598269E-1,5.46952E-2,5.4284476E-2,2.7107516E-2,1E-45,1E-45,1.8936752E-1,1E-45,1.0503537E-2,7.108519E-1,1.9026962E-1,2.2877395E-1,1E-45,4.957762E-1,2.95531E-1,2.0553811E-1,3.7885293E-2,1.2128637E-2,1E-45,6.228508E-1,2.3645896E-2,3.1727105E-1,1.17749766E-1,1E-45,2.0706871E-1,5.8202314E-1,5.7396066E-1,2.315607E-2,6.2710154E-1,1.4333932E-1,2.1073235E-2,1.9275552E-1,2.0553811E-1,1E-45,2.8677307E-2,2.5111375E-2,2.6637822E-2,2.1903018E-2,2.3515623E-2,2.1256825E-2,2.115781E-2,1.9408323E-2,1.43587245E-2,9.754511E-3,1.7580442E-2,1.1461648E-2,4.33015E-2,1.836404E-2,6.841881E-3,1.55177675E-2,3.99211E-3,1.5889198E-2,-2.0414416E-3,1.0159357E-2,-4.6177413E-3,-1.6099667E-2,-2.6738273E-3,3.4116218E-3,1.652098E-2,-0E0,-2.3763906E-2,2.9769652E-3,-1.5574454E-2,-2.0926345E-2,-1.27581395E-2,1.7656105E-2,-9.595443E-3,1.2079962E-2,-1.9843834E-2,-2.6169432E-2,-1.4020785E-2,-2.2351667E-2,7.0845913E-3,-9.010718E-3,-2.1680059E-2,-1.0915823E-2,2.2589762E-3,-1.7300267E-2,-2.8661458E-2,-1.18305255E-2,-1.991819E-2,-8.694836E-3,-2.5821075E-2,-7.491816E-3,1.2174868E-2,-7.228089E-3,1.8349506E-2,-3.1322716E-3,1.847344E-2,-8.205117E-3,-1.0574954E-2,-2.2127723E-2],"split_indices":[5,5,3,5,3,4,3,4,3,0,4,0,4,4,5,0,0,4,7,7,0,7,3,3,3,0,0,5,0,3,4,0,4,7,7,4,7,4,3,0,0,7,3,4,0,0,0,7,0,0,3,0,7,3,0,0,4,4,4,0,0,0,7,0,0,0,0,0,0,0,0,0,0,0,0,0,0,0,0,0,0,0,0,0,0,0,0,0,0,0,0,0,0,0,0,0,0,0,0,0,0,0,0,0,0,0,0,0,0,0,0,0,0,0,0,0,0,0,0,0,0],"split_type":[0,0,0,0,0,0,0,0,0,0,0,0,0,0,0,0,0,0,1,1,0,1,0,0,0,0,0,0,0,0,0,0,0,1,1,0,1,0,0,0,0,1,0,0,0,0,0,1,0,0,0,0,1,0,0,0,0,0,0,0,0,0,1,0,0,0,0,0,0,0,0,0,0,0,0,0,0,0,0,0,0,0,0,0,0,0,0,0,0,0,0,0,0,0,0,0,0,0,0,0,0,0,0,0,0,0,0,0,0,0,0,0,0,0,0,0,0,0,0,0,0],"sum_hessian":[4.0343406E4,2.3430105E4,1.69133E4,2.0238979E4,3.1911267E3,1.4188534E4,2.724766E3,1.4111002E4,6.127976E3,3.0899897E3,1.0113683E2,1.3621755E3,1.2826358E4,2.184646E3,5.4012024E2,3.619912E3,1.049109E4,5.3115527E3,8.16423E2,8.4255096E2,2.247439E3,8.0284904E1,2.0851934E1,1.3084766E3,5.3698963E1,1.0400815E4,2.4255432E3,1.9913919E2,1.9855067E3,2.9337543E2,2.4674481E2,8.310885E2,2.7888237E3,4.8134985E3,5.677592E3,4.1701025E3,1.1414504E3,5.5438007E2,2.6204297E2,2.591081E2,5.834429E2,6.495917E2,1.5978472E3,5.4540115E1,2.5744783E1,1.327906E1,7.572873E0,1.152483E3,1.5599356E2,7.8410845E0,4.585788E1,9.0781455E3,1.32267E3,8.042881E1,2.3451145E3,1.1030634E2,8.883285E1,1.7552295E3,2.3027728E2,2.6247202E2,3.09034E1,1.8073751E1,2.2867105E2,1.9715802E2,6.339304E2,3.4625992E2,2.4425637E3,1.3663756E3,3.4471228E3,1.3435885E3,4.3340034E3,1.00618915E3,3.1639133E3,6.2659186E2,5.1485864E2,1.1436491E1,5.4294354E2,1.3977937E2,1.2226359E2,1.8467542E2,7.443268E1,5.3532654E2,4.8116344E1,5.5508636E2,9.450528E1,1.1725757E3,4.2527145E2,4.030751E1,1.4232605E1,9.408937E0,1.6335846E1,5.8679553E2,5.656875E2,1.3989243E2,1.6101143E1,3.2600918E1,1.3256961E1,8.7231696E2,8.205828E3,4.1448602E2,9.0818396E2,2.5644691E1,5.478412E1,2.1443127E3,2.0080176E2,8.870325E1,2.1603088E1,2.3566313E1,6.526654E1,1.644586E3,1.1064343E2,4.9973545E1,1.8030374E2,1.47690935E1,2.4770294E2,1.649656E1,1.4406841E1,9.642105E0,8.431645E0,1.25243034E2,1.0342802E2],"tree_param":{"num_deleted":"0","num_feature":"9","num_nodes":"121","size_leaf_vector":"1"}},{"base_weights":[9.1160374E-4,6.2091017E-1,-8.606494E-1,8.3499867E-1,3.0000412E-1,-9.956326E-1,-5.4796696E-1,7.732484E-1,9.8318267E-1,4.746088E-1,-2.8087923E-2,-1.0321777E0,-7.56855E-1,-6.620234E-1,-3.3645E-1,7.275224E-1,8.188497E-1,9.6139574E-1,1.1369308E0,4.293564E-1,6.8886447E-1,-1.70996E-1,1.0930214E-1,-1.0853691E0,-8.522724E-1,-5.024975E-1,-8.3818203E-1,-7.021406E-1,-2.8993613E-1,-3.7646213E-1,3.946323E-2,7.83863E-1,6.9521827E-1,7.857773E-1,8.719136E-1,1.0418642E0,9.32052E-1,3.0064184E-2,1.0030982E0,3.8320133E-1,5.111838E-1,6.066825E-1,8.303867E-1,-8.669436E-2,-2.534095E-1,2.8367943E-1,2.2224752E-2,-8.2572836E-1,-1.1032716E0,-6.693431E-1,-9.091453E-1,-6.268797E-1,-2.2104357E-1,-9.9947816E-1,-6.6183996E-1,-7.514209E-1,-5.555885E-1,2.5698867E-1,-3.8355845E-1,-3.9239314E-1,5.9413356E-1,3.30355E-1,-3.5988605E-1,1.9261215E-2,2.684739E-2,1.3931925E-2,1.8569954E-2,1.9749502E-2,1.1389712E-2,2.296555E-2,1.9229937E-2,2.7007082E-2,2.3081087E-2,2.1493811E-2,2.4337027E-2,1.7571734E-2,2.9470373E-2,1.0988219E-2,6.7803073E-3,1.30876545E-2,3.1743608E-3,1.7136393E-2,1.1217548E-2,2.3772782E-2,1.6678926E-2,-8.134915E-3,-4.1455158E-4,-9.888522E-3,-3.9368058E-3,1.0023495E-3,1.007095E-2,-1.516091E-3,5.238214E-3,-1.2426885E-2,-2.4666205E-2,-2.8424317E-2,-2.5844015E-2,-1.35846445E-2,-2.1728152E-2,-2.5281852E-2,-1.9468836E-2,-2.9772287E-2,-1.3657234E-2,2.8721213E-3,-1.0358117E-2,-2.0559022E-2,-3.0234367E-2,-1.3854071E-2,-2.26343E-2,-1.6810799E-2,-2.305101E-2,-9.326878E-3,-1.7664803E-2,1.2961779E-2,-9.894525E-3,-2.1584264E-3,-1.4844667E-2,-4.6945675E-3,-1.1483658E-2,2.6216777E-2,5.1609655E-3,2.5653241E-2,5.5154157E-3,1.6987652E-3,-1.5564314E-2],"categories":[1,3,4,5,7,8,0,1,5,8,10,11,12,5,6,7,8,11,2,4,5,6,7,8,9,10,11,12,1,2,5,7,8,12,0,2,4,6,10,11,12,0,1,8,9,10,11,12,0,1,3,4,7,11,12,0,1,3,7,9,11,12,0,1,3,4,5,7,11,12,1,2,3,7,9,10,11,12,2,3,5,7,8,0,1,2,3,4,6,7,8,10,12,2,3,4,5,7,10,1,3,10,12,2,4,5,10,1,5,7,8,1,4,5,7,8,1,3,4,5,7,9,10,11,12,0,1,2,3,4,5,6,2,4,7,8],"categories_nodes":[12,18,21,28,30,34,35,39,41,42,47,49,52,53,54,55,56,58,59,60,62],"categories_segments":[0,6,13,18,28,34,41,48,55,62,70,78,83,93,99,103,107,111,116,125,132],"categories_sizes":[6,7,5,10,6,7,7,7,7,8,8,5,10,6,4,4,4,5,9,7,4],"default_left":[0,0,0,0,0,0,0,0,0,0,0,0,1,0,0,0,0,0,1,0,0,1,0,0,0,0,0,0,1,0,1,0,0,0,1,1,0,0,0,1,0,1,1,0,0,0,0,1,0,1,0,0,1,1,1,1,1,0,1,1,1,0,1,0,0,0,0,0,0,0,0,0,0,0,0,0,0,0,0,0,0,0,0,0,0,0,0,0,0,0,0,0,0,0,0,0,0,0,0,0,0,0,0,0,0,0,0,0,0,0,0,0,0,0,0,0,0,0,0,0,0,0,0,0,0],"id":11,"left_children":[1,3,5,7,9,11,13,15,17,19,21,23,25,27,29,31,33,35,37,39,41,43,45,47,49,51,53,55,57,59,61,63,65,67,69,71,73,-1,75,77,79,81,83,85,87,89,91,93,95,97,99,101,103,105,107,109,111,113,115,117,119,121,123,-1,-1,-1,-1,-1,-1,-1,-1,-1,-1,-1,-1,-1,-1,-1,-1,-1,-1,-1,-1,-1,-1,-1,-1,-1,-1,-1,-1,-1,-1,-1,-1,-1,-1,-1,-1,-1,-1,-1,-1,-1,-1,-1,-1,-1,-1,-1,-1,-1,-1,-1,-1,-1,-1,-1,-1,-1,-1,-1,-1,-1,-1],"loss_changes":[2.1447256E4,1.6037861E3,7.0869727E2,1.2761621E2,5.354217E2,1.01859375E2,1.2194299E2,2.0148926E1,1.31521E1,5.8800537E1,6.3731182E1,9.6791016E1,3.1843384E1,4.8829468E1,2.681247E1,8.544922E0,8.178955E0,7.918701E0,4.1954346E0,1.8756165E1,1.1923096E1,1.0957905E1,2.5016384E1,3.5914062E1,2.3696411E1,1.3002472E1,3.306775E1,2.105664E1,1.647832E1,2.4778336E1,1.9763517E1,4.561035E0,2.137085E1,7.6835938E0,9.088989E0,4.1783447E0,7.7648926E0,0E0,9.061981E0,2.0641449E1,1.0157684E1,8.274902E0,7.2952576E0,1.31695385E1,1.08459015E1,1.6070171E1,1.7333002E1,2.699997E1,1.791504E1,1.3469406E1,2.3458984E1,1.1099129E1,7.764435E0,2.2369751E1,1.4258316E1,2.8962036E1,2.0578186E1,8.075905E0,1.7167831E1,2.2080276E1,4.1843596E0,7.1587343E0,8.276864E0,0E0,0E0,0E0,0E0,0E0,0E0,0E0,0E0,0E0,0E0,0E0,0E0,0E0,0E0,0E0,0E0,0E0,0E0,0E0,0E0,0E0,0E0,0E0,0E0,0E0,0E0,0E0,0E0,0E0,0E0,0E0,0E0,0E0,0E0,0E0,0E0,0E0,0E0,0E0,0E0,0E0,0E0,0E0,0E0,0E0,0E0,0E0,0E0,0E0,0E0,0E0,0E0,0E0,0E0,0E0,0E0,0E0,0E0,0E0,0E0,0E0,0E0],"parents":[2147483647,0,0,1,1,2,2,3,3,4,4,5,5,6,6,7,7,8,8,9,9,10,10,11,11,12,12,13,13,14,14,15,15,16,16,17,17,18,18,19,19,20,20,21,21,22,22,23,23,24,24,25,25,26,26,27,27,28,28,29,29,30,30,31,31,32,32,33,33,34,34,35,35,36,36,38,38,39,39,40,40,41,41,42,42,43,43,44,44,45,45,46,46,47,47,48,48,49,49,50,50,51,51,52,52,53,53,54,54,55,55,56,56,57,57,58,58,59,59,60,60,61,61,62,62],"right_children":[2,4,6,8,10,12,14,16,18,20,22,24,26,28,30,32,34,36,38,40,42,44,46,48,50,52,54,56,58,60,62,64,66,68,70,72,74,-1,76,78,80,82,84,86,88,90,92,94,96,98,100,102,104,106,108,110,112,114,116,118,120,122,124,-1,-1,-1,-1,-1,-1,-1,-1,-1,-1,-1,-1,-1,-1,-1,-1,-1,-1,-1,-1,-1,-1,-1,-1,-1,-1,-1,-1,-1,-1,-1,-1,-1,-1,-1,-1,-1,-1,-1,-1,-1,-1,-1,-1,-1,-1,-1,-1,-1,-1,-1,-1,-1,-1,-1,-1,-1,-1,-1,-1,-1,-1],"split_conditions":[3E0,1E0,4.4920653E-1,5.461577E-1,2E0,6.430497E-1,5.8942354E-1,3.127382E-1,7.673018E-1,5.952805E-1,3.762969E-1,3.4891647E-1,1E-45,5.9745646E-1,5.718622E-1,3.5566083E-1,4.9232227E-1,1.7424251E-1,1E-45,4.122762E-1,6.952332E-1,1E-45,2.4656005E-1,7.6689966E-2,2.2320274E-1,7.5596815E-1,1.85206E-1,5.490217E-1,1E-45,8.559417E-1,1E-45,3.469394E-1,4.8747435E-1,4.8371676E-1,1E-45,1E-45,3.7311256E-1,3.0064184E-2,8.149819E-1,1E-45,5.863282E-1,1E-45,1E-45,9.200065E-2,3.9934602E-1,5.0942034E-1,5.432119E-1,1E-45,2.2246909E-1,1E-45,4.5892215E-1,4E0,1E-45,1E-45,1E-45,1E-45,1E-45,6.659893E-1,1E-45,1E-45,1E-45,5.862329E-1,1E-45,1.9261215E-2,2.684739E-2,1.3931925E-2,1.8569954E-2,1.9749502E-2,1.1389712E-2,2.296555E-2,1.9229937E-2,2.7007082E-2,2.3081087E-2,2.1493811E-2,2.4337027E-2,1.7571734E-2,2.9470373E-2,1.0988219E-2,6.7803073E-3,1.30876545E-2,3.1743608E-3,1.7136393E-2,1.1217548E-2,2.3772782E-2,1.6678926E-2,-8.134915E-3,-4.1455158E-4,-9.888522E-3,-3.9368058E-3,1.0023495E-3,1.007095E-2,-1.516091E-3,5.238214E-3,-1.2426885E-2,-2.4666205E-2,-2.8424317E-2,-2.5844015E-2,-1.35846445E-2,-2.1728152E-2,-2.5281852E-2,-1.9468836E-2,-2.9772287E-2,-1.3657234E-2,2.8721213E-3,-1.0358117E-2,-2.0559022E-2,-3.0234367E-2,-1.3854071E-2,-2.26343E-2,-1.6810799E-2,-2.305101E-2,-9.326878E-3,-1.7664803E-2,1.2961779E-2,-9.894525E-3,-2.1584264E-3,-1.4844667E-2,-4.6945675E-3,-1.1483658E-2,2.6216777E-2,5.1609655E-3,2.5653241E-2,5.5154157E-3,1.6987652E-3,-1.5564314E-2],"split_indices":[5,5,1,1,5,0,1,1,1,1,1,1,7,0,0,0,0,0,6,1,1,6,0,0,0,0,1,1,6,1,6,0,0,0,6,6,0,0,1,6,1,6,6,1,0,1,0,6,1,6,0,5,6,6,6,6,7,0,7,6,7,0,7,0,0,0,0,0,0,0,0,0,0,0,0,0,0,0,0,0,0,0,0,0,0,0,0,0,0,0,0,0,0,0,0,0,0,0,0,0,0,0,0,0,0,0,0,0,0,0,0,0,0,0,0,0,0,0,0,0,0,0,0,0,0],"split_type":[0,0,0,0,0,0,0,0,0,0,0,0,1,0,0,0,0,0,1,0,0,1,0,0,0,0,0,0,1,0,1,0,0,0,1,1,0,0,0,1,0,1,1,0,0,0,0,1,0,1,0,0,1,1,1,1,1,0,1,1,1,0,1,0,0,0,0,0,0,0,0,0,0,0,0,0,0,0,0,0,0,0,0,0,0,0,0,0,0,0,0,0,0,0,0,0,0,0,0,0,0,0,0,0,0,0,0,0,0,0,0,0,0,0,0,0,0,0,0,0,0,0,0,0,0],"sum_hessian":[4.0150953E4,2.3348904E4,1.6802047E4,1.4004813E4,9.344091E3,1.1735088E4,5.0669595E3,9.886928E3,4.117886E3,6.0991245E3,3.244966E3,1.0176288E4,1.5588002E3,3.2909438E3,1.7760159E3,4.9401377E3,4.94679E3,3.6086165E3,5.0926987E2,5.036764E3,1.0623605E3,1.5915817E3,1.6533844E3,7.852759E3,2.323529E3,3.7856955E2,1.1802306E3,2.9699277E3,3.2101593E2,1.6058651E3,1.7015085E2,1.7967753E3,3.1433623E3,3.051096E3,1.8956941E3,9.613838E2,2.6472327E3,3.3037732E2,1.7889255E2,3.2227046E3,1.8140594E3,6.7347565E2,3.888848E2,7.88557E2,8.030246E2,5.4952203E2,1.1038624E3,5.0766125E2,7.345097E3,5.523596E2,1.7711696E3,2.6180197E2,1.167676E2,6.154829E2,5.647476E2,2.2209868E3,7.489409E2,4.6456898E1,2.7455905E2,1.5802441E3,2.5620934E1,9.886919E1,7.128166E1,1.7409095E3,5.5865757E1,8.6495575E2,2.2784065E3,2.977065E3,7.4030876E1,1.2473771E3,6.48317E2,6.9323456E2,2.681492E2,1.0723342E3,1.5748984E3,6.853456E1,1.10357994E2,2.1068528E3,1.1158518E3,1.7456006E3,6.845887E1,4.3973755E2,2.337381E2,2.1708815E2,1.7179665E2,1.7699461E2,6.115624E2,3.1820355E2,4.8482108E2,1.8341127E2,3.6611075E2,7.646576E2,3.3920477E2,1.71648E2,3.3601328E2,4.562821E3,2.7822764E3,3.4523114E2,2.071285E2,9.582867E2,8.128829E2,3.1000095E1,2.3080186E2,4.233772E1,7.4429886E1,3.42338E2,2.7314493E2,3.9765155E2,1.6709608E2,1.5518376E3,6.691493E2,3.4605637E2,4.0288458E2,3.3428368E1,1.3028528E1,1.1534037E2,1.5921867E2,4.0177554E2,1.1784686E3,1.1340268E1,1.4280666E1,1.2881881E1,8.598731E1,2.6883364E1,4.4398296E1],"tree_param":{"num_deleted":"0","num_feature":"9","num_nodes":"125","size_leaf_vector":"1"}},{"base_weights":[2.0241647E-3,8.154226E-1,-4.346306E-1,7.6018405E-1,9.6216434E-1,-5.9634656E-1,-1.20882794E-1,7.3471975E-1,8.660982E-1,8.478599E-1,9.9196565E-1,-6.855923E-1,-2.7630642E-1,-2.6298577E-2,-4.0170524E-1,7.209939E-1,8.8068897E-1,8.3626205E-1,1.0902358E0,7.926593E-1,1.1268609E0,1.1333317E0,9.686494E-1,-5.796398E-1,-9.5887357E-1,-3.5639122E-1,1.7107037E-1,-1.20355405E-1,2.32176E-1,-4.695987E-1,4.8282515E-2,6.531884E-1,7.634028E-1,8.9144754E-1,-2.426619E-3,1.0055876E0,7.939375E-1,1.1194118E0,7.1009146E-3,8.9040345E-1,6.8707937E-1,3.0137181E-2,4.834866E-1,1.017152E0,1.2567809E0,9.595874E-1,1.1706932E0,-6.302761E-1,-2.7963918E-1,-1.0569831E0,-7.4390006E-1,-2.8089E-1,-7.397958E-1,2.2736153E-1,-6.335823E-1,-1.8288118E-1,2.3038751E-1,1.7998004E-1,5.849892E-1,-5.552144E-1,-1.0550366E-1,-6.083435E-3,7.5971633E-1,1.5329707E-2,2.0968799E-2,1.7742017E-2,2.0769754E-2,2.535765E-2,1.9886572E-2,2.8494699E-2,2.2163253E-2,1.9187896E-2,2.8938241E-2,1.7624743E-2,2.8643636E-2,1.8218309E-2,2.359327E-2,1.3939517E-2,2.22664E-2,-3.8852992E-3,2.6944546E-2,2.3232836E-2,3.46793E-2,3.567566E-2,2.664957E-2,2.3969311E-2,5.6117E-3,2.153627E-2,3.1097878E-2,-1.7782368E-2,-9.134165E-3,-8.537919E-3,1.07100895E-2,-2.7909743E-2,-1.7867606E-2,-1.9478276E-2,-2.6856684E-3,-9.36853E-3,4.8030622E-4,-1.9176425E-2,8.768176E-3,4.3116673E-3,2.2302588E-2,-3.273883E-2,-6.246093E-3,-5.8452357E-3,7.4587176E-3,3.9977133E-3,2.0937448E-2,-1.413485E-3,6.365311E-3,-5.4303785E-3,1.7493896E-2,-1.5526038E-2,-6.131474E-3,-3.8603207E-4,-1.6793009E-2,-1.9415097E-3,1.51067125E-2,3.4752715E-2,-3.9777933E-3],"categories":[0,1,10,11,12,1,10,11,12,0,1,4,6,8,9,10,11,12,0,1,9,10,11,12,1,11,12,1,12,0,1,2,4,5,6,10,11,12,0,1,4,5,6,7,10,11,12,0,1,4,5,6,9,10,11,12],"categories_nodes":[0,6,11,19,20,25,26,33,35,44],"categories_segments":[0,1,5,9,18,24,27,29,38,47],"categories_sizes":[1,4,4,9,6,3,2,9,9,9],"default_left":[1,0,0,0,0,0,1,0,0,0,0,1,0,0,0,0,0,0,0,1,1,0,0,0,0,1,1,0,0,0,0,0,0,1,0,1,0,0,0,0,0,0,0,0,1,0,0,0,0,0,0,0,0,0,0,0,0,0,0,0,0,0,0,0,0,0,0,0,0,0,0,0,0,0,0,0,0,0,0,0,0,0,0,0,0,0,0,0,0,0,0,0,0,0,0,0,0,0,0,0,0,0,0,0,0,0,0,0,0,0,0,0,0,0,0,0,0,0,0,0,0],"id":12,"left_children":[1,3,5,7,9,11,13,15,17,19,21,23,25,27,29,31,33,35,37,39,41,43,45,47,49,51,53,55,57,59,61,63,65,67,-1,69,71,73,-1,75,77,-1,79,81,83,85,87,89,91,93,95,97,99,101,103,105,107,109,111,113,115,117,119,-1,-1,-1,-1,-1,-1,-1,-1,-1,-1,-1,-1,-1,-1,-1,-1,-1,-1,-1,-1,-1,-1,-1,-1,-1,-1,-1,-1,-1,-1,-1,-1,-1,-1,-1,-1,-1,-1,-1,-1,-1,-1,-1,-1,-1,-1,-1,-1,-1,-1,-1,-1,-1,-1,-1,-1,-1,-1],"loss_changes":[1.428821E4,1.1338379E2,1.3279087E3,2.7054688E1,1.2526611E1,4.9305127E2,2.3636938E2,1.6013184E1,1.263269E1,1.1685059E1,9.393311E0,3.9058105E2,1.350214E2,1.6191083E2,6.863547E1,2.1221436E1,7.6620483E0,1.1964478E1,5.0050354E0,6.3964233E0,6.5923767E0,5.4576416E0,4.137207E0,1.4758228E2,7.90166E1,9.220236E1,2.5767246E1,1.07113625E2,3.2487274E1,6.056317E1,1.1570321E1,1.9913452E1,1.6152344E1,7.66864E0,0E0,4.9526978E0,1.11203E1,2.3546448E0,0E0,2.6446228E0,8.042557E0,0E0,6.26266E0,6.2686768E0,6.02771E0,6.7419434E0,2.0328827E0,1.847815E2,6.344168E1,5.632788E1,2.910376E1,7.6808685E1,1.790915E1,1.9011576E1,9.198522E0,1.04193924E2,3.115754E1,2.7874928E1,2.1808609E1,3.3275604E1,1.8849003E1,1.18616295E1,1.2797693E1,0E0,0E0,0E0,0E0,0E0,0E0,0E0,0E0,0E0,0E0,0E0,0E0,0E0,0E0,0E0,0E0,0E0,0E0,0E0,0E0,0E0,0E0,0E0,0E0,0E0,0E0,0E0,0E0,0E0,0E0,0E0,0E0,0E0,0E0,0E0,0E0,0E0,0E0,0E0,0E0,0E0,0E0,0E0,0E0,0E0,0E0,0E0,0E0,0E0,0E0,0E0,0E0,0E0,0E0,0E0,0E0,0E0,0E0],